{"learner":{"attributes":{"scikit_learn":"{\"_estimator_type\": \"classifier\"}"},"feature_names":[],"feature_types":[],"gradient_booster":{"model":{"cats":{"enc":[],"feature_segments":[],"sorted_idx":[]},"gbtree_model_param":{"num_parallel_tree":"1","num_trees":"300"},"iteration_indptr":[0,1,2,3,4,5,6,7,8,9,10,11,12,13,14,15,16,17,18,19,20,21,22,23,24,25,26,27,28,29,30,31,32,33,34,35,36,37,38,39,40,41,42,43,44,45,46,47,48,49,50,51,52,53,54,55,56,57,58,59,60,61,62,63,64,65,66,67,68,69,70,71,72,73,74,75,76,77,78,79,80,81,82,83,84,85,86,87,88,89,90,91,92,93,94,95,96,97,98,99,100,101,102,103,104,105,106,107,108,109,110,111,112,113,114,115,116,117,118,119,120,121,122,123,124,125,126,127,128,129,130,131,132,133,134,135,136,137,138,139,140,141,142,143,144,145,146,147,148,149,150,151,152,153,154,155,156,157,158,159,160,161,162,163,164,165,166,167,168,169,170,171,172,173,174,175,176,177,178,179,180,181,182,183,184,185,186,187,188,189,190,191,192,193,194,195,196,197,198,199,200,201,202,203,204,205,206,207,208,209,210,211,212,213,214,215,216,217,218,219,220,221,222,223,224,225,226,227,228,229,230,231,232,233,234,235,236,237,238,239,240,241,242,243,244,245,246,247,248,249,250,251,252,253,254,255,256,257,258,259,260,261,262,263,264,265,266,267,268,269,270,271,272,273,274,275,276,277,278,279,280,281,282,283,284,285,286,287,288,289,290,291,292,293,294,295,296,297,298,299,300],"tree_info":[0,0,0,0,0,0,0,0,0,0,0,0,0,0,0,0,0,0,0,0,0,0,0,0,0,0,0,0,0,0,0,0,0,0,0,0,0,0,0,0,0,0,0,0,0,0,0,0,0,0,0,0,0,0,0,0,0,0,0,0,0,0,0,0,0,0,0,0,0,0,0,0,0,0,0,0,0,0,0,0,0,0,0,0,0,0,0,0,0,0,0,0,0,0,0,0,0,0,0,0,0,0,0,0,0,0,0,0,0,0,0,0,0,0,0,0,0,0,0,0,0,0,0,0,0,0,0,0,0,0,0,0,0,0,0,0,0,0,0,0,0,0,0,0,0,0,0,0,0,0,0,0,0,0,0,0,0,0,0,0,0,0,0,0,0,0,0,0,0,0,0,0,0,0,0,0,0,0,0,0,0,0,0,0,0,0,0,0,0,0,0,0,0,0,0,0,0,0,0,0,0,0,0,0,0,0,0,0,0,0,0,0,0,0,0,0,0,0,0,0,0,0,0,0,0,0,0,0,0,0,0,0,0,0,0,0,0,0,0,0,0,0,0,0,0,0,0,0,0,0,0,0,0,0,0,0,0,0,0,0,0,0,0,0,0,0,0,0,0,0,0,0,0,0,0,0,0,0,0,0,0,0,0,0,0,0,0,0,0,0,0,0,0,0,0,0,0,0,0,0],"trees":[{"base_weights":[-1.2618297E-2,-1.9737706E-1,1.7837838E0,-1.2727273E-1,1.8650306E0,-1E-1,1.9130435E0,1.9245283E-1,5E-2],"categories":[],"categories_nodes":[],"categories_segments":[],"categories_sizes":[],"default_left":[0,0,0,0,0,0,0,0,0],"id":0,"left_children":[1,-1,3,-1,5,-1,7,-1,-1],"loss_changes":[5.619191E2,0E0,2.3047302E1,0E0,1.3124054E1,0E0,3.441162E-1,0E0,0E0],"parents":[2147483647,0,0,2,2,4,4,6,6],"right_children":[2,-1,4,-1,6,-1,8,-1,-1],"split_conditions":[1.9427897E-1,-1.9737706E-1,1E0,-1.2727273E-1,1E0,-1E-1,1.9947E0,1.9245283E-1,5E-2],"split_indices":[7,0,4,0,1,0,9,0,0],"split_type":[0,0,0,0,0,0,0,0,0],"sum_hessian":[1.575E2,7.525E1,8.225E1,1.75E0,8.05E1,1E0,7.95E1,7.85E1,1E0],"tree_param":{"num_deleted":"0","num_feature":"11","num_nodes":"9","size_leaf_vector":"1"}},{"base_weights":[-1.2591464E-2,-1.8049033E-1,1.790762E-1],"categories":[],"categories_nodes":[],"categories_segments":[],"categories_sizes":[],"default_left":[0,0,0],"id":1,"left_children":[1,-1,-1],"loss_changes":[4.9958923E2,0E0,0E0],"parents":[2147483647,0,0],"right_children":[2,-1,-1],"split_conditions":[1.4285715E-1,-1.8049033E-1,1.790762E-1],"split_indices":[0,0,0],"split_type":[0,0,0],"sum_hessian":[1.5256767E2,7.6517654E1,7.605001E1],"tree_param":{"num_deleted":"0","num_feature":"11","num_nodes":"3","size_leaf_vector":"1"}},{"base_weights":[3.92247E-2,-1.6592439E-1,1.6687034E-1],"categories":[],"categories_nodes":[],"categories_segments":[],"categories_sizes":[],"default_left":[0,0,0],"id":2,"left_children":[1,-1,-1],"loss_changes":[4.234268E2,0E0,0E0],"parents":[2147483647,0,0],"right_children":[2,-1,-1],"split_conditions":[1.5409076E-1,-1.6592439E-1,1.6687034E-1],"split_indices":[0,0,0],"split_type":[0,0,0],"sum_hessian":[1.5099278E2,7.392237E1,7.7070404E1],"tree_param":{"num_deleted":"0","num_feature":"11","num_nodes":"3","size_leaf_vector":"1"}},{"base_weights":[-1.2560089E-2,-1.5659057E-1,1.5504913E0,4.193836E-2,1.5627263E-1],"categories":[],"categories_nodes":[],"categories_segments":[],"categories_sizes":[],"default_left":[0,0,0,0,0],"id":3,"left_children":[1,-1,3,-1,-1],"loss_changes":[3.68846E2,0E0,3.9259338E-1,0E0,0E0],"parents":[2147483647,0,0,2,2],"right_children":[2,-1,4,-1,-1],"split_conditions":[1.5409076E-1,-1.5659057E-1,7.0720882E0,4.193836E-2,1.5627263E-1],"split_indices":[0,0,5,0,0],"split_type":[0,0,0,0,0],"sum_hessian":[1.499161E2,7.519059E1,7.472552E1,1.1771513E0,7.354836E1],"tree_param":{"num_deleted":"0","num_feature":"11","num_nodes":"5","size_leaf_vector":"1"}},{"base_weights":[-4.9211975E-2,-1.480773E-1,1.4789836E-1],"categories":[],"categories_nodes":[],"categories_segments":[],"categories_sizes":[],"default_left":[0,0,0],"id":4,"left_children":[1,-1,-1],"loss_changes":[3.1212408E2,0E0,0E0],"parents":[2147483647,0,0],"right_children":[2,-1,-1],"split_conditions":[1.5409076E-1,-1.480773E-1,1.4789836E-1],"split_indices":[0,0,0],"split_type":[0,0,0],"sum_hessian":[1.4067084E2,7.264786E1,6.802298E1],"tree_param":{"num_deleted":"0","num_feature":"11","num_nodes":"3","size_leaf_vector":"1"}},{"base_weights":[-3.1610757E-2,-1.4125624E-1,1.399768E0,3.2835912E-2,1.4128235E-1],"categories":[],"categories_nodes":[],"categories_segments":[],"categories_sizes":[],"default_left":[0,0,0,0,0],"id":5,"left_children":[1,-1,3,-1,-1],"loss_changes":[2.7215195E2,0E0,4.8190308E-1,0E0,0E0],"parents":[2147483647,0,0,2,2],"right_children":[2,-1,4,-1,-1],"split_conditions":[1.3333334E-1,-1.4125624E-1,7.065101E0,3.2835912E-2,1.4128235E-1],"split_indices":[0,0,5,0,0],"split_type":[0,0,0,0,0],"sum_hessian":[1.356821E2,6.906418E1,6.661791E1,1.11681E0,6.550111E1],"tree_param":{"num_deleted":"0","num_feature":"11","num_nodes":"5","size_leaf_vector":"1"}},{"base_weights":[1.13178715E-2,-1.354726E-1,1.3388536E0,2.3333723E-2,1.3531488E-1],"categories":[],"categories_nodes":[],"categories_segments":[],"categories_sizes":[],"default_left":[0,0,0,0,0],"id":6,"left_children":[1,-1,3,-1,-1],"loss_changes":[2.2989886E2,0E0,7.002411E-1,0E0,0E0],"parents":[2147483647,0,0,2,2],"right_children":[2,-1,4,-1,-1],"split_conditions":[1.5409076E-1,-1.354726E-1,2.0633519E0,2.3333723E-2,1.3531488E-1],"split_indices":[0,0,6,0,0],"split_type":[0,0,0,0,0],"sum_hessian":[1.24772606E2,6.1484318E1,6.328829E1,1.0290593E0,6.2259228E1],"tree_param":{"num_deleted":"0","num_feature":"11","num_nodes":"5","size_leaf_vector":"1"}},{"base_weights":[-4.2873524E-2,-1.3073401E-1,1.2893715E0,2.616231E-2,1.3039856E-1],"categories":[],"categories_nodes":[],"categories_segments":[],"categories_sizes":[],"default_left":[0,0,0,0,0],"id":7,"left_children":[1,-1,3,-1,-1],"loss_changes":[1.99249E2,0E0,5.241623E-1,0E0,0E0],"parents":[2147483647,0,0,2,2],"right_children":[2,-1,4,-1,-1],"split_conditions":[1.5409076E-1,-1.3073401E-1,7.065101E0,2.616231E-2,1.3039856E-1],"split_indices":[0,0,5,0,0],"split_type":[0,0,0,0,0],"sum_hessian":[1.16277565E2,5.966589E1,5.661167E1,1.0587168E0,5.5552956E1],"tree_param":{"num_deleted":"0","num_feature":"11","num_nodes":"5","size_leaf_vector":"1"}},{"base_weights":[-1.30607365E-2,-1.2654726E-1,1.2419311E0,3.5511535E-2,1.2572561E-1],"categories":[],"categories_nodes":[],"categories_segments":[],"categories_sizes":[],"default_left":[0,0,0,0,0],"id":8,"left_children":[1,-1,3,-1,-1],"loss_changes":[1.7471841E2,0E0,3.081894E-1,0E0,0E0],"parents":[2147483647,0,0,2,2],"right_children":[2,-1,4,-1,-1],"split_conditions":[1.4285715E-1,-1.2654726E-1,2.0633519E0,3.5511535E-2,1.2572561E-1],"split_indices":[0,0,6,0,0],"split_type":[0,0,0,0,0],"sum_hessian":[1.09160614E2,5.4632282E1,5.4528328E1,1.3369234E0,5.3191406E1],"tree_param":{"num_deleted":"0","num_feature":"11","num_nodes":"5","size_leaf_vector":"1"}},{"base_weights":[-3.561179E-2,-1.2277179E-1,1.0744493E0,-5.3463143E-1,1.1513073E0,-6.536086E-2,-1.6621206E-2,6.9134444E-1,1.19540654E-1,-4.9837295E-2,1.00099824E-1],"categories":[],"categories_nodes":[],"categories_segments":[],"categories_sizes":[],"default_left":[0,0,0,0,0,0,0,0,0,0,0],"id":9,"left_children":[1,-1,3,5,7,-1,-1,9,-1,-1,-1],"loss_changes":[1.3766493E2,0E0,7.279663E0,2.8974473E-2,2.2319794E-1,0E0,0E0,3.0403771E0,0E0,0E0,0E0],"parents":[2147483647,0,0,2,2,3,3,4,4,7,7],"right_children":[2,-1,4,6,8,-1,-1,10,-1,-1,-1],"split_conditions":[1.9427897E-1,-1.2277179E-1,2.0368218E0,2.73462E-1,2.553858E-1,-6.536086E-2,-1.6621206E-2,8.509608E0,1.19540654E-1,-4.9837295E-2,1.00099824E-1],"split_indices":[7,0,6,7,7,0,0,5,0,0,0],"split_type":[0,0,0,0,0,0,0,0,0,0,0],"sum_hessian":[1.0203387E2,4.914768E1,5.288619E1,2.1394322E0,5.0746758E1,1.0320534E0,1.1073787E0,5.8987575E0,4.4848E1,1.0923605E0,4.806397E0],"tree_param":{"num_deleted":"0","num_feature":"11","num_nodes":"11","size_leaf_vector":"1"}},{"base_weights":[-2.6465872E-2,-1.2035133E-1,1.1839116E0,2.3010794E-2,1.2007936E-1],"categories":[],"categories_nodes":[],"categories_segments":[],"categories_sizes":[],"default_left":[0,0,0,0,0],"id":10,"left_children":[1,-1,3,-1,-1],"loss_changes":[1.4281714E2,0E0,5.1968384E-1,0E0,0E0],"parents":[2147483647,0,0,2,2],"right_children":[2,-1,4,-1,-1],"split_conditions":[1.5409076E-1,-1.2035133E-1,7.0720882E0,2.3010794E-2,1.2007936E-1],"split_indices":[0,0,5,0,0],"split_type":[0,0,0,0,0],"sum_hessian":[9.824554E1,4.981143E1,4.8434105E1,1.096809E0,4.7337296E1],"tree_param":{"num_deleted":"0","num_feature":"11","num_nodes":"5","size_leaf_vector":"1"}},{"base_weights":[-2.9265166E-3,-1.17384195E-1,1.1471922E0,2.7325222E-2,1.1655774E-1],"categories":[],"categories_nodes":[],"categories_segments":[],"categories_sizes":[],"default_left":[0,0,0,0,0],"id":11,"left_children":[1,-1,3,-1,-1],"loss_changes":[1.1779653E2,0E0,3.9053726E-1,0E0,0E0],"parents":[2147483647,0,0,2,2],"right_children":[2,-1,4,-1,-1],"split_conditions":[1.4285715E-1,-1.17384195E-1,2.0633519E0,2.7325222E-2,1.1655774E-1],"split_indices":[0,0,6,0,0],"split_type":[0,0,0,0,0],"sum_hessian":[8.547109E1,4.234241E1,4.312868E1,1.2154378E0,4.1913246E1],"tree_param":{"num_deleted":"0","num_feature":"11","num_nodes":"5","size_leaf_vector":"1"}},{"base_weights":[1.9438706E-2,-1.1519903E-1,1.151786E-1],"categories":[],"categories_nodes":[],"categories_segments":[],"categories_sizes":[],"default_left":[0,0,0],"id":12,"left_children":[1,-1,-1],"loss_changes":[1.116968E2,0E0,0E0],"parents":[2147483647,0,0],"right_children":[2,-1,-1],"split_conditions":[1.5409076E-1,-1.1519903E-1,1.151786E-1],"split_indices":[0,0,0],"split_type":[0,0,0],"sum_hessian":[8.220612E1,4.0397255E1,4.180887E1],"tree_param":{"num_deleted":"0","num_feature":"11","num_nodes":"3","size_leaf_vector":"1"}},{"base_weights":[1.366098E-2,-1.12816565E-1,1.099414E0,2.1048972E-2,1.1211162E-1],"categories":[],"categories_nodes":[],"categories_segments":[],"categories_sizes":[],"default_left":[0,0,0,0,0],"id":13,"left_children":[1,-1,3,-1,-1],"loss_changes":[9.434903E1,0E0,5.1644516E-1,0E0,0E0],"parents":[2147483647,0,0,2,2],"right_children":[2,-1,4,-1,-1],"split_conditions":[1.4285715E-1,-1.12816565E-1,7.095268E0,2.1048972E-2,1.1211162E-1],"split_indices":[0,0,5,0,0],"split_type":[0,0,0,0,0],"sum_hessian":[7.410331E1,3.6099934E1,3.8003372E1,1.1606802E0,3.6842693E1],"tree_param":{"num_deleted":"0","num_feature":"11","num_nodes":"5","size_leaf_vector":"1"}},{"base_weights":[1.9910872E-2,-1.1117291E-1,1.0874963E0,1.6336849E-2,1.11073814E-1],"categories":[],"categories_nodes":[],"categories_segments":[],"categories_sizes":[],"default_left":[0,0,0,0,0],"id":14,"left_children":[1,-1,3,-1,-1],"loss_changes":[8.489089E1,0E0,5.949249E-1,0E0,0E0],"parents":[2147483647,0,0,2,2],"right_children":[2,-1,4,-1,-1],"split_conditions":[1.5409076E-1,-1.1117291E-1,2.0633519E0,1.6336849E-2,1.11073814E-1],"split_indices":[0,0,6,0,0],"split_type":[0,0,0,0,0],"sum_hessian":[6.826608E1,3.3118813E1,3.514727E1,1.0592475E0,3.4088024E1],"tree_param":{"num_deleted":"0","num_feature":"11","num_nodes":"5","size_leaf_vector":"1"}},{"base_weights":[1.8661821E-2,-1.0925051E-1,1.0773295E0,1.91986E-2,1.1023072E-1],"categories":[],"categories_nodes":[],"categories_segments":[],"categories_sizes":[],"default_left":[0,0,0,0,0],"id":15,"left_children":[1,-1,3,-1,-1],"loss_changes":[7.718825E1,0E0,5.312462E-1,0E0,0E0],"parents":[2147483647,0,0,2,2],"right_children":[2,-1,4,-1,-1],"split_conditions":[1.3333334E-1,-1.0925051E-1,7.095268E0,1.91986E-2,1.1023072E-1],"split_indices":[0,0,5,0,0],"split_type":[0,0,0,0,0],"sum_hessian":[6.3615833E1,3.102273E1,3.2593105E1,1.1326371E0,3.1460468E1],"tree_param":{"num_deleted":"0","num_feature":"11","num_nodes":"5","size_leaf_vector":"1"}},{"base_weights":[4.003797E-2,-1.0744804E-1,1.0585202E0,1.6116789E-2,1.08589076E-1],"categories":[],"categories_nodes":[],"categories_segments":[],"categories_sizes":[],"default_left":[0,0,0,0,0],"id":16,"left_children":[1,-1,3,-1,-1],"loss_changes":[6.667553E1,0E0,5.7832336E-1,0E0,0E0],"parents":[2147483647,0,0,2,2],"right_children":[2,-1,4,-1,-1],"split_conditions":[1.4285715E-1,-1.0744804E-1,7.095268E0,1.6116789E-2,1.08589076E-1],"split_indices":[0,0,5,0,0],"split_type":[0,0,0,0,0],"sum_hessian":[5.673691E1,2.7064941E1,2.967197E1,1.0821381E0,2.8589832E1],"tree_param":{"num_deleted":"0","num_feature":"11","num_nodes":"5","size_leaf_vector":"1"}},{"base_weights":[5.148364E-2,-1.0589935E-1,1.0223728E0,1.707228E-2,1.05074145E-1],"categories":[],"categories_nodes":[],"categories_segments":[],"categories_sizes":[],"default_left":[0,0,0,0,0],"id":17,"left_children":[1,-1,3,-1,-1],"loss_changes":[5.9264854E1,0E0,5.285244E-1,0E0,0E0],"parents":[2147483647,0,0,2,2],"right_children":[2,-1,4,-1,-1],"split_conditions":[1.3333334E-1,-1.0589935E-1,2.1133196E0,1.707228E-2,1.05074145E-1],"split_indices":[0,0,6,0,0],"split_type":[0,0,0,0,0],"sum_hessian":[5.2964806E1,2.4664017E1,2.8300789E1,1.138551E0,2.716224E1],"tree_param":{"num_deleted":"0","num_feature":"11","num_nodes":"5","size_leaf_vector":"1"}},{"base_weights":[5.2744866E-4,-1.05116285E-1,9.397417E-1,-2.6074823E-3,9.864461E-2],"categories":[],"categories_nodes":[],"categories_segments":[],"categories_sizes":[],"default_left":[0,0,0,0,0],"id":18,"left_children":[1,-1,3,-1,-1],"loss_changes":[5.094124E1,0E0,1.2545795E0,0E0,0E0],"parents":[2147483647,0,0,2,2],"right_children":[2,-1,4,-1,-1],"split_conditions":[1.9427897E-1,-1.05116285E-1,2.0633519E0,-2.6074823E-3,9.864461E-2],"split_indices":[7,0,6,0,0],"split_type":[0,0,0,0,0],"sum_hessian":[4.95723E1,2.3329628E1,2.6242672E1,1.2308663E0,2.5011806E1],"tree_param":{"num_deleted":"0","num_feature":"11","num_nodes":"5","size_leaf_vector":"1"}},{"base_weights":[-5.65564E-3,-1.0383896E-1,1.0096633E0,1.6538864E-2,1.0453924E-1],"categories":[],"categories_nodes":[],"categories_segments":[],"categories_sizes":[],"default_left":[0,0,0,0,0],"id":19,"left_children":[1,-1,3,-1,-1],"loss_changes":[4.8804195E1,0E0,5.351658E-1,0E0,0E0],"parents":[2147483647,0,0,2,2],"right_children":[2,-1,4,-1,-1],"split_conditions":[1.3333334E-1,-1.0383896E-1,2.1133196E0,1.6538864E-2,1.0453924E-1],"split_indices":[0,0,6,0,0],"split_type":[0,0,0,0,0],"sum_hessian":[4.454439E1,2.2071547E1,2.2472845E1,1.140963E0,2.1331882E1],"tree_param":{"num_deleted":"0","num_feature":"11","num_nodes":"5","size_leaf_vector":"1"}},{"base_weights":[-4.6241484E-3,-1.0282828E-1,9.701807E-1,9.908068E-3,1.0062691E-1],"categories":[],"categories_nodes":[],"categories_segments":[],"categories_sizes":[],"default_left":[0,0,0,0,0],"id":20,"left_children":[1,-1,3,-1,-1],"loss_changes":[4.467247E1,0E0,6.2125206E-1,0E0,0E0],"parents":[2147483647,0,0,2,2],"right_children":[2,-1,4,-1,-1],"split_conditions":[1.4285715E-1,-1.0282828E-1,7.137161E0,9.908068E-3,1.0062691E-1],"split_indices":[0,0,5,0,0],"split_type":[0,0,0,0,0],"sum_hessian":[4.276819E1,2.0834587E1,2.1933603E1,1.0215292E0,2.0912075E1],"tree_param":{"num_deleted":"0","num_feature":"11","num_nodes":"5","size_leaf_vector":"1"}},{"base_weights":[9.481697E-3,-1.02268636E-1,9.771695E-1,1.4739175E-2,1.0160911E-1],"categories":[],"categories_nodes":[],"categories_segments":[],"categories_sizes":[],"default_left":[0,0,0,0,0],"id":21,"left_children":[1,-1,3,-1,-1],"loss_changes":[4.067961E1,0E0,5.289593E-1,0E0,0E0],"parents":[2147483647,0,0,2,2],"right_children":[2,-1,4,-1,-1],"split_conditions":[1.5409076E-1,-1.02268636E-1,7.113152E0,1.4739175E-2,1.0160911E-1],"split_indices":[0,0,5,0,0],"split_type":[0,0,0,0,0],"sum_hessian":[3.872729E1,1.8711813E1,2.0015478E1,1.1112548E0,1.8904222E1],"tree_param":{"num_deleted":"0","num_feature":"11","num_nodes":"5","size_leaf_vector":"1"}},{"base_weights":[3.1210924E-3,-1.0037651E-1,9.3781465E-1,9.955495E-3,9.784529E-2],"categories":[],"categories_nodes":[],"categories_segments":[],"categories_sizes":[],"default_left":[0,0,0,0,0],"id":22,"left_children":[1,-1,3,-1,-1],"loss_changes":[3.499693E1,0E0,5.594597E-1,0E0,0E0],"parents":[2147483647,0,0,2,2],"right_children":[2,-1,4,-1,-1],"split_conditions":[1.4285715E-1,-1.0037651E-1,7.095268E0,9.955495E-3,9.784529E-2],"split_indices":[0,0,5,0,0],"split_type":[0,0,0,0,0],"sum_hessian":[3.518584E1,1.69032E1,1.8282642E1,1.0048583E0,1.7277784E1],"tree_param":{"num_deleted":"0","num_feature":"11","num_nodes":"5","size_leaf_vector":"1"}},{"base_weights":[-4.8831715E-3,-9.677217E-1,9.472545E-2,-9.991957E-2,-3.1243702E-2],"categories":[],"categories_nodes":[],"categories_segments":[],"categories_sizes":[],"default_left":[0,0,0,0,0],"id":23,"left_children":[1,3,-1,-1,-1],"loss_changes":[3.220729E1,4.802704E-2,0E0,0E0,0E0],"parents":[2147483647,0,0,1,1],"right_children":[2,4,-1,-1,-1],"split_conditions":[1.5409076E-1,1.9427897E-1,9.472545E-2,-9.991957E-2,-3.1243702E-2],"split_indices":[0,7,0,0,0],"split_type":[0,0,0,0,0],"sum_hessian":[3.3131927E1,1.6465256E1,1.6666672E1,1.5209883E1,1.2553723E0],"tree_param":{"num_deleted":"0","num_feature":"11","num_nodes":"5","size_leaf_vector":"1"}},{"base_weights":[-2.0610832E-2,-9.8457836E-2,9.039975E-1,8.845015E-3,9.517609E-2],"categories":[],"categories_nodes":[],"categories_segments":[],"categories_sizes":[],"default_left":[0,0,0,0,0],"id":24,"left_children":[1,-1,3,-1,-1],"loss_changes":[2.8514772E1,0E0,5.5236626E-1,0E0,0E0],"parents":[2147483647,0,0,2,2],"right_children":[2,-1,4,-1,-1],"split_conditions":[1.3333334E-1,-9.8457836E-2,7.095268E0,8.845015E-3,9.517609E-2],"split_indices":[0,0,5,0,0],"split_type":[0,0,0,0,0],"sum_hessian":[2.9994001E1,1.4652699E1,1.5341303E1,1.0065529E0,1.433475E1],"tree_param":{"num_deleted":"0","num_feature":"11","num_nodes":"5","size_leaf_vector":"1"}},{"base_weights":[-1.4526701E-2,-9.455265E-1,9.1830814E-1,-9.808474E-2,-2.7820736E-2,8.405358E-3,9.727108E-2],"categories":[],"categories_nodes":[],"categories_segments":[],"categories_sizes":[],"default_left":[0,0,0,0,0,0,0],"id":25,"left_children":[1,3,5,-1,-1,-1,-1],"loss_changes":[2.600029E1,8.011246E-2,5.973091E-1,0E0,0E0,0E0,0E0],"parents":[2147483647,0,0,1,1,2,2],"right_children":[2,4,6,-1,-1,-1,-1],"split_conditions":[1.5409076E-1,1.9427897E-1,7.137161E0,-9.808474E-2,-2.7820736E-2,8.405358E-3,9.727108E-2],"split_indices":[0,7,5,0,0,0,0],"split_type":[0,0,0,0,0,0,0],"sum_hessian":[2.7938286E1,1.3976087E1,1.3962199E1,1.2827311E1,1.1487767E0,1.0105541E0,1.2951645E1],"tree_param":{"num_deleted":"0","num_feature":"11","num_nodes":"7","size_leaf_vector":"1"}},{"base_weights":[3.7392648E-3,-9.616215E-2,8.7182474E-1,1.1008538E-2,9.2731126E-2],"categories":[],"categories_nodes":[],"categories_segments":[],"categories_sizes":[],"default_left":[0,0,0,0,0],"id":26,"left_children":[1,-1,3,-1,-1],"loss_changes":[2.2592422E1,0E0,4.9778557E-1,0E0,0E0],"parents":[2147483647,0,0,2,2],"right_children":[2,-1,4,-1,-1],"split_conditions":[1.3333334E-1,-9.616215E-2,2.1555593E0,1.1008538E-2,9.2731126E-2],"split_indices":[0,0,6,0,0],"split_type":[0,0,0,0,0],"sum_hessian":[2.495901E1,1.17663765E1,1.3192634E1,1.0983312E0,1.2094302E1],"tree_param":{"num_deleted":"0","num_feature":"11","num_nodes":"5","size_leaf_vector":"1"}},{"base_weights":[-1.7547734E-3,-9.6886925E-2,8.9539176E-1,6.8565193E-3,9.577409E-2],"categories":[],"categories_nodes":[],"categories_segments":[],"categories_sizes":[],"default_left":[0,0,0,0,0],"id":27,"left_children":[1,-1,3,-1,-1],"loss_changes":[2.2340532E1,0E0,6.229868E-1,0E0,0E0],"parents":[2147483647,0,0,2,2],"right_children":[2,-1,4,-1,-1],"split_conditions":[1.5409076E-1,-9.6886925E-2,2.1555593E0,6.8565193E-3,9.577409E-2],"split_indices":[0,0,6,0,0],"split_type":[0,0,0,0,0],"sum_hessian":[2.3748663E1,1.1390201E1,1.2358462E1,1.013809E0,1.1344654E1],"tree_param":{"num_deleted":"0","num_feature":"11","num_nodes":"5","size_leaf_vector":"1"}},{"base_weights":[4.2542644E-2,-9.4265215E-2,9.5279805E-2],"categories":[],"categories_nodes":[],"categories_segments":[],"categories_sizes":[],"default_left":[0,0,0],"id":28,"left_children":[1,-1,-1],"loss_changes":[2.0575008E1,0E0,0E0],"parents":[2147483647,0,0],"right_children":[2,-1,-1],"split_conditions":[1.4285715E-1,-9.4265215E-2,9.5279805E-2],"split_indices":[0,0,0],"split_type":[0,0,0],"sum_hessian":[2.0941696E1,1.0039776E1,1.090192E1],"tree_param":{"num_deleted":"0","num_feature":"11","num_nodes":"3","size_leaf_vector":"1"}},{"base_weights":[-3.3884417E-2,-9.999531E-2,7.866699E-1,-2.8909726E-2,9.381896E-2],"categories":[],"categories_nodes":[],"categories_segments":[],"categories_sizes":[],"default_left":[0,0,0,0,0],"id":29,"left_children":[1,-1,3,-1,-1],"loss_changes":[1.7164387E1,0E0,2.1834226E0,0E0,0E0],"parents":[2147483647,0,0,2,2],"right_children":[2,-1,4,-1,-1],"split_conditions":[1E0,-9.999531E-2,1.5409076E-1,-2.8909726E-2,9.381896E-2],"split_indices":[1,0,0,0,0],"split_type":[0,0,0,0,0],"sum_hessian":[1.9660414E1,8.929158E0,1.0731256E1,1.2127725E0,9.518483E0],"tree_param":{"num_deleted":"0","num_feature":"11","num_nodes":"5","size_leaf_vector":"1"}},{"base_weights":[2.3779148E-5,-9.218462E-2,8.0711854E-1,6.9332453E-3,8.756425E-2],"categories":[],"categories_nodes":[],"categories_segments":[],"categories_sizes":[],"default_left":[0,0,0,0,0],"id":30,"left_children":[1,-1,3,-1,-1],"loss_changes":[1.5199917E1,0E0,4.899745E-1,0E0,0E0],"parents":[2147483647,0,0,2,2],"right_children":[2,-1,4,-1,-1],"split_conditions":[1.4285715E-1,-9.218462E-2,7.192161E0,6.9332453E-3,8.756425E-2],"split_indices":[0,0,5,0,0],"split_type":[0,0,0,0,0],"sum_hessian":[1.8428993E1,8.536433E0,9.89256E0,1.0116874E0,8.880872E0],"tree_param":{"num_deleted":"0","num_feature":"11","num_nodes":"5","size_leaf_vector":"1"}},{"base_weights":[1.8464765E-2,-8.676913E-2,8.339262E-1,6.91641E-3,9.1319375E-2],"categories":[],"categories_nodes":[],"categories_segments":[],"categories_sizes":[],"default_left":[0,0,0,0,0],"id":31,"left_children":[1,-1,3,-1,-1],"loss_changes":[1.3836158E1,0E0,5.4060555E-1,0E0,0E0],"parents":[2147483647,0,0,2,2],"right_children":[2,-1,4,-1,-1],"split_conditions":[1.5409076E-1,-8.676913E-2,7.23797E0,6.91641E-3,9.1319375E-2],"split_indices":[0,0,5,0,0],"split_type":[0,0,0,0,0],"sum_hessian":[1.7145716E1,8.186E0,8.959716E0,1.0173175E0,7.942398E0],"tree_param":{"num_deleted":"0","num_feature":"11","num_nodes":"5","size_leaf_vector":"1"}},{"base_weights":[-2.518826E-2,-9.00613E-2,7.6183605E-1,3.617755E-1,8.726653E-2,-2.7136493E-2,6.977718E-2],"categories":[],"categories_nodes":[],"categories_segments":[],"categories_sizes":[],"default_left":[0,0,0,0,0,0,0],"id":32,"left_children":[1,-1,3,5,-1,-1,-1],"loss_changes":[1.2011868E1,0E0,9.21154E-2,9.772035E-1,0E0,0E0,0E0],"parents":[2147483647,0,0,2,2,3,3],"right_children":[2,-1,4,6,-1,-1,-1],"split_conditions":[1.3333334E-1,-9.00613E-2,2.0010763E-1,1.3929894E0,8.726653E-2,-2.7136493E-2,6.977718E-2],"split_indices":[0,0,0,9,0,0,0],"split_type":[0,0,0,0,0,0,0],"sum_hessian":[1.5438414E1,7.2404137E0,8.198E0,2.7034838E0,5.4945164E0,1.003978E0,1.6995058E0],"tree_param":{"num_deleted":"0","num_feature":"11","num_nodes":"7","size_leaf_vector":"1"}},{"base_weights":[4.4577368E-2,-8.858511E-2,8.216111E-1,5.6841783E-3,9.1231555E-2],"categories":[],"categories_nodes":[],"categories_segments":[],"categories_sizes":[],"default_left":[0,0,0,0,0],"id":33,"left_children":[1,-1,3,-1,-1],"loss_changes":[1.1855167E1,0E0,5.6591177E-1,0E0,0E0],"parents":[2147483647,0,0,2,2],"right_children":[2,-1,4,-1,-1],"split_conditions":[1.3333334E-1,-8.858511E-2,2.2487242E0,5.6841783E-3,9.1231555E-2],"split_indices":[0,0,6,0,0],"split_type":[0,0,0,0,0],"sum_hessian":[1.4391062E1,6.485369E0,7.905692E0,1.0107002E0,6.894992E0],"tree_param":{"num_deleted":"0","num_feature":"11","num_nodes":"5","size_leaf_vector":"1"}},{"base_weights":[-7.556322E-4,-8.270862E-2,7.7650005E-1,5.5130967E-3,8.74233E-2],"categories":[],"categories_nodes":[],"categories_segments":[],"categories_sizes":[],"default_left":[0,0,0,0,0],"id":34,"left_children":[1,-1,3,-1,-1],"loss_changes":[9.825063E0,0E0,5.075865E-1,0E0,0E0],"parents":[2147483647,0,0,2,2],"right_children":[2,-1,4,-1,-1],"split_conditions":[1.5409076E-1,-8.270862E-2,2.25E0,5.5130967E-3,8.74233E-2],"split_indices":[0,0,6,0,0],"split_type":[0,0,0,0,0],"sum_hessian":[1.3297461E1,6.4141836E0,6.883277E0,1.007917E0,5.8753595E0],"tree_param":{"num_deleted":"0","num_feature":"11","num_nodes":"5","size_leaf_vector":"1"}},{"base_weights":[3.9945357E-2,-8.6882904E-2,7.96226E-1,7.0913457E-3,8.9368984E-2],"categories":[],"categories_nodes":[],"categories_segments":[],"categories_sizes":[],"default_left":[0,0,0,0,0],"id":35,"left_children":[1,-1,3,-1,-1],"loss_changes":[1.0161718E1,0E0,5.05136E-1,0E0,0E0],"parents":[2147483647,0,0,2,2],"right_children":[2,-1,4,-1,-1],"split_conditions":[1.4285715E-1,-8.6882904E-2,2.1990507E0,7.0913457E-3,8.9368984E-2],"split_indices":[0,0,6,0,0],"split_type":[0,0,0,0,0],"sum_hessian":[1.277869E1,5.7365837E0,7.042106E0,1.0388335E0,6.003273E0],"tree_param":{"num_deleted":"0","num_feature":"11","num_nodes":"5","size_leaf_vector":"1"}},{"base_weights":[-2.2063063E-2,-9.627124E-2,7.2633636E-1,-8.848946E-3,8.659386E-2],"categories":[],"categories_nodes":[],"categories_segments":[],"categories_sizes":[],"default_left":[0,0,0,0,0],"id":36,"left_children":[1,-1,3,-1,-1],"loss_changes":[9.540156E0,0E0,9.370315E-1,0E0,0E0],"parents":[2147483647,0,0,2,2],"right_children":[2,-1,4,-1,-1],"split_conditions":[1E0,-9.627124E-2,1.5732427E-1,-8.848946E-3,8.659386E-2],"split_indices":[1,0,0,0,0],"split_type":[0,0,0,0,0],"sum_hessian":[1.1558434E1,4.9945345E0,6.563899E0,1.0136412E0,5.5502577E0],"tree_param":{"num_deleted":"0","num_feature":"11","num_nodes":"5","size_leaf_vector":"1"}},{"base_weights":[5.294065E-2,-8.3421215E-2,7.5770646E-1,6.12729E-3,8.663385E-2],"categories":[],"categories_nodes":[],"categories_segments":[],"categories_sizes":[],"default_left":[0,0,0,0,0],"id":37,"left_children":[1,-1,3,-1,-1],"loss_changes":[7.8437133E0,0E0,4.7286367E-1,0E0,0E0],"parents":[2147483647,0,0,2,2],"right_children":[2,-1,4,-1,-1],"split_conditions":[1.3333334E-1,-8.3421215E-2,2.3154285E0,6.12729E-3,8.663385E-2],"split_indices":[0,0,6,0,0],"split_type":[0,0,0,0,0],"sum_hessian":[1.05342655E1,4.58236E0,5.9519057E0,1.0141691E0,4.9377365E0],"tree_param":{"num_deleted":"0","num_feature":"11","num_nodes":"5","size_leaf_vector":"1"}},{"base_weights":[6.9600227E-3,-9.12875E-2,7.099277E-1,-3.497649E-4,8.378144E-2],"categories":[],"categories_nodes":[],"categories_segments":[],"categories_sizes":[],"default_left":[0,0,0,0,0],"id":38,"left_children":[1,-1,3,-1,-1],"loss_changes":[7.5816875E0,0E0,6.0879374E-1,0E0,0E0],"parents":[2147483647,0,0,2,2],"right_children":[2,-1,4,-1,-1],"split_conditions":[1E0,-9.12875E-2,1.6159984E-1,-3.497649E-4,8.378144E-2],"split_indices":[1,0,0,0,0],"split_type":[0,0,0,0,0],"sum_hessian":[9.722949E0,4.0824504E0,5.6404986E0,1.0052563E0,4.6352425E0],"tree_param":{"num_deleted":"0","num_feature":"11","num_nodes":"5","size_leaf_vector":"1"}},{"base_weights":[-4.023676E-2,-9.310938E-2,7.083842E-1,1.2918505E-2,8.0344506E-2],"categories":[],"categories_nodes":[],"categories_segments":[],"categories_sizes":[],"default_left":[0,0,0,0,0],"id":39,"left_children":[1,-1,3,-1,-1],"loss_changes":[7.0382204E0,0E0,2.1362376E-1,0E0,0E0],"parents":[2147483647,0,0,2,2],"right_children":[2,-1,4,-1,-1],"split_conditions":[1E0,-9.310938E-2,1.6942063E-1,1.2918505E-2,8.0344506E-2],"split_indices":[1,0,0,0,0],"split_type":[0,0,0,0,0],"sum_hessian":[8.564421E0,3.7993999E0,4.7650213E0,1.0043793E0,3.7606418E0],"tree_param":{"num_deleted":"0","num_feature":"11","num_nodes":"5","size_leaf_vector":"1"}},{"base_weights":[3.690927E-2,-8.132859E-2,6.7234896E-2],"categories":[],"categories_nodes":[],"categories_segments":[],"categories_sizes":[],"default_left":[0,0,0],"id":40,"left_children":[1,-1,-1],"loss_changes":[5.5611854E0,0E0,0E0],"parents":[2147483647,0,0],"right_children":[2,-1,-1],"split_conditions":[1E0,-8.132859E-2,6.7234896E-2],"split_indices":[1,0,0],"split_type":[0,0,0],"sum_hessian":[8.281616E0,3.4225242E0,4.8590918E0],"tree_param":{"num_deleted":"0","num_feature":"11","num_nodes":"3","size_leaf_vector":"1"}},{"base_weights":[-2.9626464E-2,-9.0649076E-2,6.7365915E-2],"categories":[],"categories_nodes":[],"categories_segments":[],"categories_sizes":[],"default_left":[0,0,0],"id":41,"left_children":[1,-1,-1],"loss_changes":[6.2782836E0,0E0,0E0],"parents":[2147483647,0,0],"right_children":[2,-1,-1],"split_conditions":[1E0,-9.0649076E-2,6.7365915E-2],"split_indices":[1,0,0],"split_type":[0,0,0],"sum_hessian":[8.190443E0,3.516765E0,4.6736784E0],"tree_param":{"num_deleted":"0","num_feature":"11","num_nodes":"3","size_leaf_vector":"1"}},{"base_weights":[-7.771676E-2,-8.912044E-2,6.055819E-1,-5.5186227E-3,7.7468835E-2],"categories":[],"categories_nodes":[],"categories_segments":[],"categories_sizes":[],"default_left":[0,0,0,0,0],"id":42,"left_children":[1,-1,3,-1,-1],"loss_changes":[5.2855644E0,0E0,6.2779033E-1,0E0,0E0],"parents":[2147483647,0,0,2,2],"right_children":[2,-1,4,-1,-1],"split_conditions":[1E0,-8.912044E-2,1.7163369E-1,-5.5186227E-3,7.7468835E-2],"split_indices":[1,0,0,0,0],"split_type":[0,0,0,0,0],"sum_hessian":[7.5379586E0,3.3022556E0,4.235703E0,1.0003978E0,3.235305E0],"tree_param":{"num_deleted":"0","num_feature":"11","num_nodes":"5","size_leaf_vector":"1"}},{"base_weights":[6.654998E-2,-6.921681E-2,7.913665E-2],"categories":[],"categories_nodes":[],"categories_segments":[],"categories_sizes":[],"default_left":[0,0,0],"id":43,"left_children":[1,-1,-1],"loss_changes":[4.9648986E0,0E0,0E0],"parents":[2147483647,0,0],"right_children":[2,-1,-1],"split_conditions":[1.5409076E-1,-6.921681E-2,7.913665E-2],"split_indices":[0,0,0],"split_type":[0,0,0],"sum_hessian":[7.0321655E0,3.4577408E0,3.5744247E0],"tree_param":{"num_deleted":"0","num_feature":"11","num_nodes":"3","size_leaf_vector":"1"}},{"base_weights":[5.6045618E-2,-7.412692E-2,6.994491E-2],"categories":[],"categories_nodes":[],"categories_segments":[],"categories_sizes":[],"default_left":[0,0,0],"id":44,"left_children":[1,-1,-1],"loss_changes":[4.2584805E0,0E0,0E0],"parents":[2147483647,0,0],"right_children":[2,-1,-1],"split_conditions":[1.3333334E-1,-7.412692E-2,6.994491E-2],"split_indices":[0,0,0],"split_type":[0,0,0],"sum_hessian":[6.2905173E0,2.7413237E0,3.5491939E0],"tree_param":{"num_deleted":"0","num_feature":"11","num_nodes":"3","size_leaf_vector":"1"}},{"base_weights":[2.3482919E-2,-7.733557E-2,7.650949E-2],"categories":[],"categories_nodes":[],"categories_segments":[],"categories_sizes":[],"default_left":[0,0,0],"id":45,"left_children":[1,-1,-1],"loss_changes":[4.7045994E0,0E0,0E0],"parents":[2147483647,0,0],"right_children":[2,-1,-1],"split_conditions":[1.5409076E-1,-7.733557E-2,7.650949E-2],"split_indices":[0,0,0],"split_type":[0,0,0],"sum_hessian":[5.959884E0,2.852336E0,3.1075482E0],"tree_param":{"num_deleted":"0","num_feature":"11","num_nodes":"3","size_leaf_vector":"1"}},{"base_weights":[-4.5196816E-2,-8.687649E-2,6.346067E-2],"categories":[],"categories_nodes":[],"categories_segments":[],"categories_sizes":[],"default_left":[0,0,0],"id":46,"left_children":[1,-1,-1],"loss_changes":[4.396408E0,0E0,0E0],"parents":[2147483647,0,0],"right_children":[2,-1,-1],"split_conditions":[1E0,-8.687649E-2,6.346067E-2],"split_indices":[1,0,0],"split_type":[0,0,0],"sum_hessian":[5.8678846E0,2.527683E0,3.3402014E0],"tree_param":{"num_deleted":"0","num_feature":"11","num_nodes":"3","size_leaf_vector":"1"}},{"base_weights":[-3.1621814E-2,-7.217925E-2,4.8601696E-1,5.3493753E-3,6.731694E-2],"categories":[],"categories_nodes":[],"categories_segments":[],"categories_sizes":[],"default_left":[0,0,0,0,0],"id":47,"left_children":[1,-1,3,-1,-1],"loss_changes":[2.73765E0,0E0,3.213967E-1,0E0,0E0],"parents":[2147483647,0,0,2,2],"right_children":[2,-1,4,-1,-1],"split_conditions":[1.8962434E-1,-7.217925E-2,2.0010763E-1,5.3493753E-3,6.731694E-2],"split_indices":[7,0,0,0,0],"split_type":[0,0,0,0,0],"sum_hessian":[5.6809955E0,2.2657135E0,3.4152822E0,1.4198145E0,1.9954678E0],"tree_param":{"num_deleted":"0","num_feature":"11","num_nodes":"5","size_leaf_vector":"1"}},{"base_weights":[5.7716947E-2,-6.939E-2,6.569697E-2],"categories":[],"categories_nodes":[],"categories_segments":[],"categories_sizes":[],"default_left":[0,0,0],"id":48,"left_children":[1,-1,-1],"loss_changes":[3.2024357E0,0E0,0E0],"parents":[2147483647,0,0],"right_children":[2,-1,-1],"split_conditions":[1.4285715E-1,-6.939E-2,6.569697E-2],"split_indices":[0,0,0],"split_type":[0,0,0],"sum_hessian":[5.0979414E0,2.191409E0,2.9065325E0],"tree_param":{"num_deleted":"0","num_feature":"11","num_nodes":"3","size_leaf_vector":"1"}},{"base_weights":[-5.388591E-2,-8.425223E-2,5.634414E-1,1.1582684E-2,6.74062E-2],"categories":[],"categories_nodes":[],"categories_segments":[],"categories_sizes":[],"default_left":[0,0,0,0,0],"id":49,"left_children":[1,-1,3,-1,-1],"loss_changes":[3.439927E0,0E0,1.20761156E-1,0E0,0E0],"parents":[2147483647,0,0,2,2],"right_children":[2,-1,4,-1,-1],"split_conditions":[1E0,-8.425223E-2,1.7930405E-1,1.1582684E-2,6.74062E-2],"split_indices":[1,0,0,0,0],"split_type":[0,0,0,0,0],"sum_hessian":[5.090654E0,2.0750213E0,3.0156329E0,1.0032308E0,2.012402E0],"tree_param":{"num_deleted":"0","num_feature":"11","num_nodes":"5","size_leaf_vector":"1"}},{"base_weights":[-3.8703874E-2,-6.583633E-2,4.2979902E-1,3.4041703E-3,6.17503E-2],"categories":[],"categories_nodes":[],"categories_segments":[],"categories_sizes":[],"default_left":[0,0,0,0,0],"id":50,"left_children":[1,-1,3,-1,-1],"loss_changes":[1.9564514E0,0E0,2.6777112E-1,0E0,0E0],"parents":[2147483647,0,0,2,2],"right_children":[2,-1,4,-1,-1],"split_conditions":[1.3333334E-1,-6.583633E-2,2.0010763E-1,3.4041703E-3,6.17503E-2],"split_indices":[0,0,0,0,0],"split_type":[0,0,0,0,0],"sum_hessian":[4.76444E0,1.8768281E0,2.8876119E0,1.3090191E0,1.5785929E0],"tree_param":{"num_deleted":"0","num_feature":"11","num_nodes":"5","size_leaf_vector":"1"}},{"base_weights":[5.8422223E-2,-6.6778176E-2,6.134052E-2],"categories":[],"categories_nodes":[],"categories_segments":[],"categories_sizes":[],"default_left":[0,0,0],"id":51,"left_children":[1,-1,-1],"loss_changes":[2.5517268E0,0E0,0E0],"parents":[2147483647,0,0],"right_children":[2,-1,-1],"split_conditions":[1.9427897E-1,-6.6778176E-2,6.134052E-2],"split_indices":[7,0,0],"split_type":[0,0,0],"sum_hessian":[4.314994E0,1.7811213E0,2.5338726E0],"tree_param":{"num_deleted":"0","num_feature":"11","num_nodes":"3","size_leaf_vector":"1"}},{"base_weights":[-6.627324E-2,-8.104729E-2,5.018077E-1,9.121413E-3,6.243366E-2],"categories":[],"categories_nodes":[],"categories_segments":[],"categories_sizes":[],"default_left":[0,0,0,0,0],"id":52,"left_children":[1,-1,3,-1,-1],"loss_changes":[2.658153E0,0E0,1.2606478E-1,0E0,0E0],"parents":[2147483647,0,0,2,2],"right_children":[2,-1,4,-1,-1],"split_conditions":[1E0,-8.104729E-2,1.7854016E-1,9.121413E-3,6.243366E-2],"split_indices":[1,0,0,0,0],"split_type":[0,0,0,0,0],"sum_hessian":[4.325531E0,1.6877942E0,2.6377368E0,1.0071646E0,1.6305721E0],"tree_param":{"num_deleted":"0","num_feature":"11","num_nodes":"5","size_leaf_vector":"1"}},{"base_weights":[4.152987E-2,-6.326737E-2,5.8909334E-2],"categories":[],"categories_nodes":[],"categories_segments":[],"categories_sizes":[],"default_left":[0,0,0],"id":53,"left_children":[1,-1,-1],"loss_changes":[2.1806002E0,0E0,0E0],"parents":[2147483647,0,0],"right_children":[2,-1,-1],"split_conditions":[1.4285715E-1,-6.326737E-2,5.8909334E-2],"split_indices":[0,0,0],"split_type":[0,0,0],"sum_hessian":[3.8972015E0,1.6769603E0,2.220241E0],"tree_param":{"num_deleted":"0","num_feature":"11","num_nodes":"3","size_leaf_vector":"1"}},{"base_weights":[6.1487075E-2,-5.9599448E-2,4.9044695E-2],"categories":[],"categories_nodes":[],"categories_segments":[],"categories_sizes":[],"default_left":[0,0,0],"id":54,"left_children":[1,-1,-1],"loss_changes":[1.6252133E0,0E0,0E0],"parents":[2147483647,0,0],"right_children":[2,-1,-1],"split_conditions":[1E0,-5.9599448E-2,4.9044695E-2],"split_indices":[1,0,0],"split_type":[0,0,0],"sum_hessian":[3.7260737E0,1.3174216E0,2.4086523E0],"tree_param":{"num_deleted":"0","num_feature":"11","num_nodes":"3","size_leaf_vector":"1"}},{"base_weights":[-5.4200985E-2,-7.798884E-2,4.8812907E-2],"categories":[],"categories_nodes":[],"categories_segments":[],"categories_sizes":[],"default_left":[0,0,0],"id":55,"left_children":[1,-1,-1],"loss_changes":[2.291096E0,0E0,0E0],"parents":[2147483647,0,0],"right_children":[2,-1,-1],"split_conditions":[1E0,-7.798884E-2,4.8812907E-2],"split_indices":[1,0,0],"split_type":[0,0,0],"sum_hessian":[3.8541508E0,1.461071E0,2.3930798E0],"tree_param":{"num_deleted":"0","num_feature":"11","num_nodes":"3","size_leaf_vector":"1"}},{"base_weights":[7.148199E-2,-5.70767E-2,5.5072207E-2],"categories":[],"categories_nodes":[],"categories_segments":[],"categories_sizes":[],"default_left":[0,0,0],"id":56,"left_children":[1,-1,-1],"loss_changes":[1.6202705E0,0E0,0E0],"parents":[2147483647,0,0],"right_children":[2,-1,-1],"split_conditions":[1.3333334E-1,-5.70767E-2,5.5072207E-2],"split_indices":[0,0,0],"split_type":[0,0,0],"sum_hessian":[3.2429273E0,1.3041712E0,1.938756E0],"tree_param":{"num_deleted":"0","num_feature":"11","num_nodes":"3","size_leaf_vector":"1"}},{"base_weights":[-1.1420855E-1,-7.643374E-2,4.0337343E-2],"categories":[],"categories_nodes":[],"categories_segments":[],"categories_sizes":[],"default_left":[0,0,0],"id":57,"left_children":[1,-1,-1],"loss_changes":[1.8242508E0,0E0,0E0],"parents":[2147483647,0,0],"right_children":[2,-1,-1],"split_conditions":[1E0,-7.643374E-2,4.0337343E-2],"split_indices":[1,0,0],"split_type":[0,0,0],"sum_hessian":[3.505082E0,1.3422946E0,2.1627874E0],"tree_param":{"num_deleted":"0","num_feature":"11","num_nodes":"3","size_leaf_vector":"1"}},{"base_weights":[-9.6862465E-2,-7.4143104E-2,4.1259962E-1,1.0887026E-2,5.090574E-2],"categories":[],"categories_nodes":[],"categories_segments":[],"categories_sizes":[],"default_left":[0,0,0,0,0],"id":58,"left_children":[1,-1,3,-1,-1],"loss_changes":[1.7082124E0,0E0,3.3278406E-2,0E0,0E0],"parents":[2147483647,0,0,2,2],"right_children":[2,-1,4,-1,-1],"split_conditions":[1E0,-7.4143104E-2,1.9693962E-1,1.0887026E-2,5.090574E-2],"split_indices":[1,0,0,0,0],"split_type":[0,0,0,0,0],"sum_hessian":[3.270309E0,1.2427136E0,2.0275955E0,1.0017947E0,1.0258008E0],"tree_param":{"num_deleted":"0","num_feature":"11","num_nodes":"5","size_leaf_vector":"1"}},{"base_weights":[2.336395E-2,-5.614533E-2,4.5413535E-2],"categories":[],"categories_nodes":[],"categories_segments":[],"categories_sizes":[],"default_left":[0,0,0],"id":59,"left_children":[1,-1,-1],"loss_changes":[1.2818813E0,0E0,0E0],"parents":[2147483647,0,0],"right_children":[2,-1,-1],"split_conditions":[1.9427897E-1,-5.614533E-2,4.5413535E-2],"split_indices":[7,0,0],"split_type":[0,0,0],"sum_hessian":[3.0762753E0,1.176155E0,1.9001205E0],"tree_param":{"num_deleted":"0","num_feature":"11","num_nodes":"3","size_leaf_vector":"1"}},{"base_weights":[-1.111494E-1,-7.256117E-2,3.5612085E-1,3.2534302E-4,5.245715E-2],"categories":[],"categories_nodes":[],"categories_segments":[],"categories_sizes":[],"default_left":[0,0,0,0,0],"id":60,"left_children":[1,-1,3,-1,-1],"loss_changes":[1.4862443E0,0E0,1.8255559E-1,0E0,0E0],"parents":[2147483647,0,0,2,2],"right_children":[2,-1,4,-1,-1],"split_conditions":[1E0,-7.256117E-2,1.8214877E-1,3.2534302E-4,5.245715E-2],"split_indices":[1,0,0,0,0],"split_type":[0,0,0,0,0],"sum_hessian":[3.2763975E0,1.1764661E0,2.0999312E0,1.0079044E0,1.0920268E0],"tree_param":{"num_deleted":"0","num_feature":"11","num_nodes":"5","size_leaf_vector":"1"}},{"base_weights":[-8.165013E-2,-4.5111485E-2,2.0760683E-2],"categories":[],"categories_nodes":[],"categories_segments":[],"categories_sizes":[],"default_left":[0,0,0],"id":61,"left_children":[1,-1,-1],"loss_changes":[5.136724E-1,0E0,0E0],"parents":[2147483647,0,0],"right_children":[2,-1,-1],"split_conditions":[2.5152361E0,-4.5111485E-2,2.0760683E-2],"split_indices":[6,0,0],"split_type":[0,0,0],"sum_hessian":[2.9301667E0,1.0409757E0,1.889191E0],"tree_param":{"num_deleted":"0","num_feature":"11","num_nodes":"3","size_leaf_vector":"1"}},{"base_weights":[-9.447242E-2,-5.4533005E-2,2.7511824E-2],"categories":[],"categories_nodes":[],"categories_segments":[],"categories_sizes":[],"default_left":[0,0,0],"id":62,"left_children":[1,-1,-1],"loss_changes":[8.2826084E-1,0E0,0E0],"parents":[2147483647,0,0],"right_children":[2,-1,-1],"split_conditions":[1.4285715E-1,-5.4533005E-2,2.7511824E-2],"split_indices":[0,0,0],"split_type":[0,0,0],"sum_hessian":[3.070212E0,1.1688515E0,1.9013604E0],"tree_param":{"num_deleted":"0","num_feature":"11","num_nodes":"3","size_leaf_vector":"1"}},{"base_weights":[-7.61028E-4,-5.696969E-2,5.5918902E-2],"categories":[],"categories_nodes":[],"categories_segments":[],"categories_sizes":[],"default_left":[0,0,0],"id":63,"left_children":[1,-1,-1],"loss_changes":[1.4249247E0,0E0,0E0],"parents":[2147483647,0,0],"right_children":[2,-1,-1],"split_conditions":[1.5409076E-1,-5.696969E-2,5.5918902E-2],"split_indices":[0,0,0],"split_type":[0,0,0],"sum_hessian":[2.4728215E0,1.2179348E0,1.2548865E0],"tree_param":{"num_deleted":"0","num_feature":"11","num_nodes":"3","size_leaf_vector":"1"}},{"base_weights":[-5.1489618E-2,-5.0510455E-2,3.164105E-2],"categories":[],"categories_nodes":[],"categories_segments":[],"categories_sizes":[],"default_left":[0,0,0],"id":64,"left_children":[1,-1,-1],"loss_changes":[7.626598E-1,0E0,0E0],"parents":[2147483647,0,0],"right_children":[2,-1,-1],"split_conditions":[1.3333334E-1,-5.0510455E-2,3.164105E-2],"split_indices":[0,0,0],"split_type":[0,0,0],"sum_hessian":[2.6123042E0,1.0028577E0,1.6094466E0],"tree_param":{"num_deleted":"0","num_feature":"11","num_nodes":"3","size_leaf_vector":"1"}},{"base_weights":[5.653713E-2,-4.1816033E-2,5.3628273E-2],"categories":[],"categories_nodes":[],"categories_segments":[],"categories_sizes":[],"default_left":[0,0,0],"id":65,"left_children":[1,-1,-1],"loss_changes":[1.0062535E0,0E0,0E0],"parents":[2147483647,0,0],"right_children":[2,-1,-1],"split_conditions":[1.5409076E-1,-4.1816033E-2,5.3628273E-2],"split_indices":[0,0,0],"split_type":[0,0,0],"sum_hessian":[2.4338365E0,1.2878795E0,1.145957E0],"tree_param":{"num_deleted":"0","num_feature":"11","num_nodes":"3","size_leaf_vector":"1"}},{"base_weights":[-1.1557521E-1,-4.3015923E-2,1.9902216E-2],"categories":[],"categories_nodes":[],"categories_segments":[],"categories_sizes":[],"default_left":[0,0,0],"id":66,"left_children":[1,-1,-1],"loss_changes":[4.4359297E-1,0E0,0E0],"parents":[2147483647,0,0],"right_children":[2,-1,-1],"split_conditions":[8.25174E0,-4.3015923E-2,1.9902216E-2],"split_indices":[5,0,0],"split_type":[0,0,0],"sum_hessian":[2.617172E0,1.1249436E0,1.4922284E0],"tree_param":{"num_deleted":"0","num_feature":"11","num_nodes":"3","size_leaf_vector":"1"}},{"base_weights":[-1.8970464E-1,-4.3750968E-2,1.1351347E-2],"categories":[],"categories_nodes":[],"categories_segments":[],"categories_sizes":[],"default_left":[0,0,0],"id":67,"left_children":[1,-1,-1],"loss_changes":[3.0680877E-1,0E0,0E0],"parents":[2147483647,0,0],"right_children":[2,-1,-1],"split_conditions":[2.4685597E-1,-4.3750968E-2,1.1351347E-2],"split_indices":[7,0,0],"split_type":[0,0,0],"sum_hessian":[2.4222658E0,1.0892162E0,1.3330497E0],"tree_param":{"num_deleted":"0","num_feature":"11","num_nodes":"3","size_leaf_vector":"1"}},{"base_weights":[-1.0478423E-1,-4.027413E-2,2.0229084E-2],"categories":[],"categories_nodes":[],"categories_segments":[],"categories_sizes":[],"default_left":[0,0,0],"id":68,"left_children":[1,-1,-1],"loss_changes":[4.0214464E-1,0E0,0E0],"parents":[2147483647,0,0],"right_children":[2,-1,-1],"split_conditions":[8.25174E0,-4.027413E-2,2.0229084E-2],"split_indices":[5,0,0],"split_type":[0,0,0],"sum_hessian":[2.5048156E0,1.1131644E0,1.3916513E0],"tree_param":{"num_deleted":"0","num_feature":"11","num_nodes":"3","size_leaf_vector":"1"}},{"base_weights":[9.776009E-2,-3.7340194E-2,5.311926E-2],"categories":[],"categories_nodes":[],"categories_segments":[],"categories_sizes":[],"default_left":[0,0,0],"id":69,"left_children":[1,-1,-1],"loss_changes":[8.689357E-1,0E0,0E0],"parents":[2147483647,0,0],"right_children":[2,-1,-1],"split_conditions":[1.5409076E-1,-3.7340194E-2,5.311926E-2],"split_indices":[0,0,0],"split_type":[0,0,0],"sum_hessian":[2.2837014E0,1.1605873E0,1.123114E0],"tree_param":{"num_deleted":"0","num_feature":"11","num_nodes":"3","size_leaf_vector":"1"}},{"base_weights":[-1.9548346E-1,-4.0551208E-2,7.6603144E-3],"categories":[],"categories_nodes":[],"categories_segments":[],"categories_sizes":[],"default_left":[0,0,0],"id":70,"left_children":[1,-1,-1],"loss_changes":[2.1911135E-1,0E0,0E0],"parents":[2147483647,0,0],"right_children":[2,-1,-1],"split_conditions":[2.553858E-1,-4.0551208E-2,7.6603144E-3],"split_indices":[7,0,0],"split_type":[0,0,0],"sum_hessian":[2.2906575E0,1.0160055E0,1.2746519E0],"tree_param":{"num_deleted":"0","num_feature":"11","num_nodes":"3","size_leaf_vector":"1"}},{"base_weights":[-9.603209E-2,-3.5647284E-2,1.9068936E-2],"categories":[],"categories_nodes":[],"categories_segments":[],"categories_sizes":[],"default_left":[0,0,0],"id":71,"left_children":[1,-1,-1],"loss_changes":[3.2352212E-1,0E0,0E0],"parents":[2147483647,0,0],"right_children":[2,-1,-1],"split_conditions":[1.5409076E-1,-3.5647284E-2,1.9068936E-2],"split_indices":[0,0,0],"split_type":[0,0,0],"sum_hessian":[2.4221652E0,1.1417737E0,1.2803916E0],"tree_param":{"num_deleted":"0","num_feature":"11","num_nodes":"3","size_leaf_vector":"1"}},{"base_weights":[-1.8963364E-1,-4.680891E-2,1.5319846E-2],"categories":[],"categories_nodes":[],"categories_segments":[],"categories_sizes":[],"default_left":[0,0,0],"id":72,"left_children":[1,-1,-1],"loss_changes":[3.764125E-1,0E0,0E0],"parents":[2147483647,0,0],"right_children":[2,-1,-1],"split_conditions":[1.5732427E-1,-4.680891E-2,1.5319846E-2],"split_indices":[0,0,0],"split_type":[0,0,0],"sum_hessian":[2.1918175E0,1.007856E0,1.1839615E0],"tree_param":{"num_deleted":"0","num_feature":"11","num_nodes":"3","size_leaf_vector":"1"}},{"base_weights":[8.057348E-2,-2.3151403E-2,3.6121402E-2],"categories":[],"categories_nodes":[],"categories_segments":[],"categories_sizes":[],"default_left":[0,0,0],"id":73,"left_children":[1,-1,-1],"loss_changes":[3.5517088E-1,0E0,0E0],"parents":[2147483647,0,0],"right_children":[2,-1,-1],"split_conditions":[2.4685597E-1,-2.3151403E-2,3.6121402E-2],"split_indices":[7,0,0],"split_type":[0,0,0],"sum_hessian":[2.1003785E0,1.077354E0,1.0230246E0],"tree_param":{"num_deleted":"0","num_feature":"11","num_nodes":"3","size_leaf_vector":"1"}},{"base_weights":[-8.981763E-2,-3.6671504E-2,1.9607702E-2],"categories":[],"categories_nodes":[],"categories_segments":[],"categories_sizes":[],"default_left":[0,0,0],"id":74,"left_children":[1,-1,-1],"loss_changes":[3.2951066E-1,0E0,0E0],"parents":[2147483647,0,0],"right_children":[2,-1,-1],"split_conditions":[8.443797E0,-3.6671504E-2,1.9607702E-2],"split_indices":[5,0,0],"split_type":[0,0,0],"sum_hessian":[2.2541046E0,1.0014641E0,1.2526405E0],"tree_param":{"num_deleted":"0","num_feature":"11","num_nodes":"3","size_leaf_vector":"1"}},{"base_weights":[1.3606223E-1],"categories":[],"categories_nodes":[],"categories_segments":[],"categories_sizes":[],"default_left":[0],"id":75,"left_children":[-1],"loss_changes":[0E0],"parents":[2147483647],"right_children":[-1],"split_conditions":[1.3606223E-2],"split_indices":[0],"split_type":[0],"sum_hessian":[1.9909911E0],"tree_param":{"num_deleted":"0","num_feature":"11","num_nodes":"1","size_leaf_vector":"1"}},{"base_weights":[-1.20574445E-1,-3.6778674E-2,1.5069387E-2],"categories":[],"categories_nodes":[],"categories_segments":[],"categories_sizes":[],"default_left":[0,0,0],"id":76,"left_children":[1,-1,-1],"loss_changes":[2.749166E-1,0E0,0E0],"parents":[2147483647,0,0],"right_children":[2,-1,-1],"split_conditions":[8.400154E0,-3.6778674E-2,1.5069387E-2],"split_indices":[5,0,0],"split_type":[0,0,0],"sum_hessian":[2.2730474E0,1.0030988E0,1.2699486E0],"tree_param":{"num_deleted":"0","num_feature":"11","num_nodes":"3","size_leaf_vector":"1"}},{"base_weights":[-8.9671716E-2,-3.5481684E-2,1.7783472E-2],"categories":[],"categories_nodes":[],"categories_segments":[],"categories_sizes":[],"default_left":[0,0,0],"id":77,"left_children":[1,-1,-1],"loss_changes":[2.9849267E-1,0E0,0E0],"parents":[2147483647,0,0],"right_children":[2,-1,-1],"split_conditions":[8.270715E0,-3.5481684E-2,1.7783472E-2],"split_indices":[5,0,0],"split_type":[0,0,0],"sum_hessian":[2.3187718E0,1.0006092E0,1.3181627E0],"tree_param":{"num_deleted":"0","num_feature":"11","num_nodes":"3","size_leaf_vector":"1"}},{"base_weights":[8.799545E-2,-2.0737747E-2,3.406654E-2],"categories":[],"categories_nodes":[],"categories_segments":[],"categories_sizes":[],"default_left":[0,0,0],"id":78,"left_children":[1,-1,-1],"loss_changes":[2.9588726E-1,0E0,0E0],"parents":[2147483647,0,0],"right_children":[2,-1,-1],"split_conditions":[2.4685597E-1,-2.0737747E-2,3.406654E-2],"split_indices":[7,0,0],"split_type":[0,0,0],"sum_hessian":[2.0180268E0,1.0130363E0,1.0049906E0],"tree_param":{"num_deleted":"0","num_feature":"11","num_nodes":"3","size_leaf_vector":"1"}},{"base_weights":[-8.996459E-2,-3.0401206E-2,1.499804E-2],"categories":[],"categories_nodes":[],"categories_segments":[],"categories_sizes":[],"default_left":[0,0,0],"id":79,"left_children":[1,-1,-1],"loss_changes":[2.0945908E-1,0E0,0E0],"parents":[2147483647,0,0],"right_children":[2,-1,-1],"split_conditions":[1.5409076E-1,-3.0401206E-2,1.499804E-2],"split_indices":[0,0,0],"split_type":[0,0,0],"sum_hessian":[2.1905074E0,1.016612E0,1.1738954E0],"tree_param":{"num_deleted":"0","num_feature":"11","num_nodes":"3","size_leaf_vector":"1"}},{"base_weights":[-9.7718745E-2,-2.971499E-2,1.3518477E-2],"categories":[],"categories_nodes":[],"categories_segments":[],"categories_sizes":[],"default_left":[0,0,0],"id":80,"left_children":[1,-1,-1],"loss_changes":[1.8644716E-1,0E0,0E0],"parents":[2147483647,0,0],"right_children":[2,-1,-1],"split_conditions":[1.5409076E-1,-2.971499E-2,1.3518477E-2],"split_indices":[0,0,0],"split_type":[0,0,0],"sum_hessian":[2.149249E0,1.0092212E0,1.140028E0],"tree_param":{"num_deleted":"0","num_feature":"11","num_nodes":"3","size_leaf_vector":"1"}},{"base_weights":[-1.0079709E-1,-2.9785067E-2,1.3303666E-2],"categories":[],"categories_nodes":[],"categories_segments":[],"categories_sizes":[],"default_left":[0,0,0],"id":81,"left_children":[1,-1,-1],"loss_changes":[1.8534562E-1,0E0,0E0],"parents":[2147483647,0,0],"right_children":[2,-1,-1],"split_conditions":[1.5409076E-1,-2.9785067E-2,1.3303666E-2],"split_indices":[0,0,0],"split_type":[0,0,0],"sum_hessian":[2.162491E0,1.0249698E0,1.1375214E0],"tree_param":{"num_deleted":"0","num_feature":"11","num_nodes":"3","size_leaf_vector":"1"}},{"base_weights":[-8.405361E-2,-2.6469707E-2,1.48300035E-2],"categories":[],"categories_nodes":[],"categories_segments":[],"categories_sizes":[],"default_left":[0,0,0],"id":82,"left_children":[1,-1,-1],"loss_changes":[1.7019635E-1,0E0,0E0],"parents":[2147483647,0,0],"right_children":[2,-1,-1],"split_conditions":[3.0747986E0,-2.6469707E-2,1.48300035E-2],"split_indices":[6,0,0],"split_type":[0,0,0],"sum_hessian":[2.1196542E0,1.1142111E0,1.0054431E0],"tree_param":{"num_deleted":"0","num_feature":"11","num_nodes":"3","size_leaf_vector":"1"}},{"base_weights":[-8.458289E-2,-2.7912293E-2,1.3708296E-2],"categories":[],"categories_nodes":[],"categories_segments":[],"categories_sizes":[],"default_left":[0,0,0],"id":83,"left_children":[1,-1,-1],"loss_changes":[1.7427942E-1,0E0,0E0],"parents":[2147483647,0,0],"right_children":[2,-1,-1],"split_conditions":[1.5455252E-1,-2.7912293E-2,1.3708296E-2],"split_indices":[0,0,0],"split_type":[0,0,0],"sum_hessian":[2.1541593E0,1.0092276E0,1.1449317E0],"tree_param":{"num_deleted":"0","num_feature":"11","num_nodes":"3","size_leaf_vector":"1"}},{"base_weights":[-7.582938E-2,-2.4824204E-2,1.2360783E-2],"categories":[],"categories_nodes":[],"categories_segments":[],"categories_sizes":[],"default_left":[0,0,0],"id":84,"left_children":[1,-1,-1],"loss_changes":[1.3802254E-1,0E0,0E0],"parents":[2147483647,0,0],"right_children":[2,-1,-1],"split_conditions":[1.5622933E-1,-2.4824204E-2,1.2360783E-2],"split_indices":[0,0,0],"split_type":[0,0,0],"sum_hessian":[2.1216035E0,1.0066478E0,1.1149557E0],"tree_param":{"num_deleted":"0","num_feature":"11","num_nodes":"3","size_leaf_vector":"1"}},{"base_weights":[-7.3818885E-2,-1.4560038E-2,3.4086916E-3],"categories":[],"categories_nodes":[],"categories_segments":[],"categories_sizes":[],"default_left":[0,0,0],"id":85,"left_children":[1,-1,-1],"loss_changes":[2.8459355E-2,0E0,0E0],"parents":[2147483647,0,0],"right_children":[2,-1,-1],"split_conditions":[2.73462E-1,-1.4560038E-2,3.4086916E-3],"split_indices":[7,0,0],"split_type":[0,0,0],"sum_hessian":[2.0334857E0,1.01137E0,1.0221157E0],"tree_param":{"num_deleted":"0","num_feature":"11","num_nodes":"3","size_leaf_vector":"1"}},{"base_weights":[-8.728903E-2,-2.501803E-2,1.1075224E-2],"categories":[],"categories_nodes":[],"categories_segments":[],"categories_sizes":[],"default_left":[0,0,0],"id":86,"left_children":[1,-1,-1],"loss_changes":[1.2739316E-1,0E0,0E0],"parents":[2147483647,0,0],"right_children":[2,-1,-1],"split_conditions":[1.5622933E-1,-2.501803E-2,1.1075224E-2],"split_indices":[0,0,0],"split_type":[0,0,0],"sum_hessian":[2.0901299E0,1.0023837E0,1.0877461E0],"tree_param":{"num_deleted":"0","num_feature":"11","num_nodes":"3","size_leaf_vector":"1"}},{"base_weights":[-3.2023486E-2],"categories":[],"categories_nodes":[],"categories_segments":[],"categories_sizes":[],"default_left":[0],"id":87,"left_children":[-1],"loss_changes":[0E0],"parents":[2147483647],"right_children":[-1],"split_conditions":[-3.2023487E-3],"split_indices":[0],"split_type":[0],"sum_hessian":[1.9419825E0],"tree_param":{"num_deleted":"0","num_feature":"11","num_nodes":"1","size_leaf_vector":"1"}},{"base_weights":[-3.0537905E-2],"categories":[],"categories_nodes":[],"categories_segments":[],"categories_sizes":[],"default_left":[0],"id":88,"left_children":[-1],"loss_changes":[0E0],"parents":[2147483647],"right_children":[-1],"split_conditions":[-3.0537907E-3],"split_indices":[0],"split_type":[0],"sum_hessian":[1.9386613E0],"tree_param":{"num_deleted":"0","num_feature":"11","num_nodes":"1","size_leaf_vector":"1"}},{"base_weights":[1.4082791E-1],"categories":[],"categories_nodes":[],"categories_segments":[],"categories_sizes":[],"default_left":[0],"id":89,"left_children":[-1],"loss_changes":[0E0],"parents":[2147483647],"right_children":[-1],"split_conditions":[1.4082791E-2],"split_indices":[0],"split_type":[0],"sum_hessian":[1.8094907E0],"tree_param":{"num_deleted":"0","num_feature":"11","num_nodes":"1","size_leaf_vector":"1"}},{"base_weights":[-7.0700295E-2,-1.1783175E-2,1.2712674E-3],"categories":[],"categories_nodes":[],"categories_segments":[],"categories_sizes":[],"default_left":[0,0,0],"id":90,"left_children":[1,-1,-1],"loss_changes":[1.3569045E-2,0E0,0E0],"parents":[2147483647,0,0],"right_children":[2,-1,-1],"split_conditions":[2.9523954E-1,-1.1783175E-2,1.2712674E-3],"split_indices":[7,0,0],"split_type":[0,0,0],"sum_hessian":[2.0704498E0,1.0592837E0,1.0111662E0],"tree_param":{"num_deleted":"0","num_feature":"11","num_nodes":"3","size_leaf_vector":"1"}},{"base_weights":[1.4865214E-1],"categories":[],"categories_nodes":[],"categories_segments":[],"categories_sizes":[],"default_left":[0],"id":91,"left_children":[-1],"loss_changes":[0E0],"parents":[2147483647],"right_children":[-1],"split_conditions":[1.4865214E-2],"split_indices":[0],"split_type":[0],"sum_hessian":[1.7295604E0],"tree_param":{"num_deleted":"0","num_feature":"11","num_nodes":"1","size_leaf_vector":"1"}},{"base_weights":[-9.800419E-2,-2.7473493E-2,1.3162945E-2],"categories":[],"categories_nodes":[],"categories_segments":[],"categories_sizes":[],"default_left":[0,0,0],"id":92,"left_children":[1,-1,-1],"loss_changes":[1.6172104E-1,0E0,0E0],"parents":[2147483647,0,0],"right_children":[2,-1,-1],"split_conditions":[3.0747986E0,-2.7473493E-2,1.3162945E-2],"split_indices":[6,0,0],"split_type":[0,0,0],"sum_hessian":[2.0938287E0,1.0722206E0,1.021608E0],"tree_param":{"num_deleted":"0","num_feature":"11","num_nodes":"3","size_leaf_vector":"1"}},{"base_weights":[5.705877E-2],"categories":[],"categories_nodes":[],"categories_segments":[],"categories_sizes":[],"default_left":[0],"id":93,"left_children":[-1],"loss_changes":[0E0],"parents":[2147483647],"right_children":[-1],"split_conditions":[5.705877E-3],"split_indices":[0],"split_type":[0],"sum_hessian":[1.5670496E0],"tree_param":{"num_deleted":"0","num_feature":"11","num_nodes":"1","size_leaf_vector":"1"}},{"base_weights":[-9.001915E-2,-2.3565752E-2,9.568421E-3],"categories":[],"categories_nodes":[],"categories_segments":[],"categories_sizes":[],"default_left":[0,0,0],"id":94,"left_children":[1,-1,-1],"loss_changes":[1.05275325E-1,0E0,0E0],"parents":[2147483647,0,0],"right_children":[2,-1,-1],"split_conditions":[1.5732427E-1,-2.3565752E-2,9.568421E-3],"split_indices":[0,0,0],"split_type":[0,0,0],"sum_hessian":[2.0587907E0,1.0031039E0,1.0556867E0],"tree_param":{"num_deleted":"0","num_feature":"11","num_nodes":"3","size_leaf_vector":"1"}},{"base_weights":[-7.202197E-2,-1.1768646E-2,9.1241667E-4],"categories":[],"categories_nodes":[],"categories_segments":[],"categories_sizes":[],"default_left":[0,0,0],"id":95,"left_children":[1,-1,-1],"loss_changes":[1.22605935E-2,0E0,0E0],"parents":[2147483647,0,0],"right_children":[2,-1,-1],"split_conditions":[2.7470213E-1,-1.1768646E-2,9.1241667E-4],"split_indices":[7,0,0],"split_type":[0,0,0],"sum_hessian":[2.0189762E0,1.0037947E0,1.0151817E0],"tree_param":{"num_deleted":"0","num_feature":"11","num_nodes":"3","size_leaf_vector":"1"}},{"base_weights":[-9.80609E-2,-2.2269739E-2,7.4970624E-3],"categories":[],"categories_nodes":[],"categories_segments":[],"categories_sizes":[],"default_left":[0,0,0],"id":96,"left_children":[1,-1,-1],"loss_changes":[8.1778824E-2,0E0,0E0],"parents":[2147483647,0,0],"right_children":[2,-1,-1],"split_conditions":[1.5977694E-1,-2.2269739E-2,7.4970624E-3],"split_indices":[0,0,0],"split_type":[0,0,0],"sum_hessian":[2.0178492E0,1.0061064E0,1.011743E0],"tree_param":{"num_deleted":"0","num_feature":"11","num_nodes":"3","size_leaf_vector":"1"}},{"base_weights":[-6.368418E-2],"categories":[],"categories_nodes":[],"categories_segments":[],"categories_sizes":[],"default_left":[0],"id":97,"left_children":[-1],"loss_changes":[0E0],"parents":[2147483647],"right_children":[-1],"split_conditions":[-6.368418E-3],"split_indices":[0],"split_type":[0],"sum_hessian":[1.9444679E0],"tree_param":{"num_deleted":"0","num_feature":"11","num_nodes":"1","size_leaf_vector":"1"}},{"base_weights":[-6.474192E-2],"categories":[],"categories_nodes":[],"categories_segments":[],"categories_sizes":[],"default_left":[0],"id":98,"left_children":[-1],"loss_changes":[0E0],"parents":[2147483647],"right_children":[-1],"split_conditions":[-6.474192E-3],"split_indices":[0],"split_type":[0],"sum_hessian":[1.9995948E0],"tree_param":{"num_deleted":"0","num_feature":"11","num_nodes":"1","size_leaf_vector":"1"}},{"base_weights":[-1.8640819E-1],"categories":[],"categories_nodes":[],"categories_segments":[],"categories_sizes":[],"default_left":[0],"id":99,"left_children":[-1],"loss_changes":[0E0],"parents":[2147483647],"right_children":[-1],"split_conditions":[-1.864082E-2],"split_indices":[0],"split_type":[0],"sum_hessian":[1.7351309E0],"tree_param":{"num_deleted":"0","num_feature":"11","num_nodes":"1","size_leaf_vector":"1"}},{"base_weights":[1.7560239E-1],"categories":[],"categories_nodes":[],"categories_segments":[],"categories_sizes":[],"default_left":[0],"id":100,"left_children":[-1],"loss_changes":[0E0],"parents":[2147483647],"right_children":[-1],"split_conditions":[1.756024E-2],"split_indices":[0],"split_type":[0],"sum_hessian":[1.7736661E0],"tree_param":{"num_deleted":"0","num_feature":"11","num_nodes":"1","size_leaf_vector":"1"}},{"base_weights":[-4.7835123E-2],"categories":[],"categories_nodes":[],"categories_segments":[],"categories_sizes":[],"default_left":[0],"id":101,"left_children":[-1],"loss_changes":[0E0],"parents":[2147483647],"right_children":[-1],"split_conditions":[-4.7835126E-3],"split_indices":[0],"split_type":[0],"sum_hessian":[1.9483595E0],"tree_param":{"num_deleted":"0","num_feature":"11","num_nodes":"1","size_leaf_vector":"1"}},{"base_weights":[-9.144397E-2],"categories":[],"categories_nodes":[],"categories_segments":[],"categories_sizes":[],"default_left":[0],"id":102,"left_children":[-1],"loss_changes":[0E0],"parents":[2147483647],"right_children":[-1],"split_conditions":[-9.144397E-3],"split_indices":[0],"split_type":[0],"sum_hessian":[2.0013874E0],"tree_param":{"num_deleted":"0","num_feature":"11","num_nodes":"1","size_leaf_vector":"1"}},{"base_weights":[-5.2566603E-2],"categories":[],"categories_nodes":[],"categories_segments":[],"categories_sizes":[],"default_left":[0],"id":103,"left_children":[-1],"loss_changes":[0E0],"parents":[2147483647],"right_children":[-1],"split_conditions":[-5.2566603E-3],"split_indices":[0],"split_type":[0],"sum_hessian":[1.9787834E0],"tree_param":{"num_deleted":"0","num_feature":"11","num_nodes":"1","size_leaf_vector":"1"}},{"base_weights":[-1.1654239E-1],"categories":[],"categories_nodes":[],"categories_segments":[],"categories_sizes":[],"default_left":[0],"id":104,"left_children":[-1],"loss_changes":[0E0],"parents":[2147483647],"right_children":[-1],"split_conditions":[-1.1654239E-2],"split_indices":[0],"split_type":[0],"sum_hessian":[1.6795948E0],"tree_param":{"num_deleted":"0","num_feature":"11","num_nodes":"1","size_leaf_vector":"1"}},{"base_weights":[2.2546728E-1],"categories":[],"categories_nodes":[],"categories_segments":[],"categories_sizes":[],"default_left":[0],"id":105,"left_children":[-1],"loss_changes":[0E0],"parents":[2147483647],"right_children":[-1],"split_conditions":[2.254673E-2],"split_indices":[0],"split_type":[0],"sum_hessian":[1.6862516E0],"tree_param":{"num_deleted":"0","num_feature":"11","num_nodes":"1","size_leaf_vector":"1"}},{"base_weights":[-7.15525E-2],"categories":[],"categories_nodes":[],"categories_segments":[],"categories_sizes":[],"default_left":[0],"id":106,"left_children":[-1],"loss_changes":[0E0],"parents":[2147483647],"right_children":[-1],"split_conditions":[-7.1552503E-3],"split_indices":[0],"split_type":[0],"sum_hessian":[1.9119499E0],"tree_param":{"num_deleted":"0","num_feature":"11","num_nodes":"1","size_leaf_vector":"1"}},{"base_weights":[8.641021E-2],"categories":[],"categories_nodes":[],"categories_segments":[],"categories_sizes":[],"default_left":[0],"id":107,"left_children":[-1],"loss_changes":[0E0],"parents":[2147483647],"right_children":[-1],"split_conditions":[8.641021E-3],"split_indices":[0],"split_type":[0],"sum_hessian":[1.5572236E0],"tree_param":{"num_deleted":"0","num_feature":"11","num_nodes":"1","size_leaf_vector":"1"}},{"base_weights":[-8.094898E-2,-2.0287188E-2,7.989572E-3],"categories":[],"categories_nodes":[],"categories_segments":[],"categories_sizes":[],"default_left":[0,0,0],"id":108,"left_children":[1,-1,-1],"loss_changes":[7.5444855E-2,0E0,0E0],"parents":[2147483647,0,0],"right_children":[2,-1,-1],"split_conditions":[1.5977694E-1,-2.0287188E-2,7.989572E-3],"split_indices":[0,0,0],"split_type":[0,0,0],"sum_hessian":[2.0206172E0,1.0007455E0,1.0198717E0],"tree_param":{"num_deleted":"0","num_feature":"11","num_nodes":"3","size_leaf_vector":"1"}},{"base_weights":[1.4715314E-1],"categories":[],"categories_nodes":[],"categories_segments":[],"categories_sizes":[],"default_left":[0],"id":109,"left_children":[-1],"loss_changes":[0E0],"parents":[2147483647],"right_children":[-1],"split_conditions":[1.4715314E-2],"split_indices":[0],"split_type":[0],"sum_hessian":[1.8009139E0],"tree_param":{"num_deleted":"0","num_feature":"11","num_nodes":"1","size_leaf_vector":"1"}},{"base_weights":[-7.103289E-2],"categories":[],"categories_nodes":[],"categories_segments":[],"categories_sizes":[],"default_left":[0],"id":110,"left_children":[-1],"loss_changes":[0E0],"parents":[2147483647],"right_children":[-1],"split_conditions":[-7.103289E-3],"split_indices":[0],"split_type":[0],"sum_hessian":[1.9709951E0],"tree_param":{"num_deleted":"0","num_feature":"11","num_nodes":"1","size_leaf_vector":"1"}},{"base_weights":[-6.586193E-2],"categories":[],"categories_nodes":[],"categories_segments":[],"categories_sizes":[],"default_left":[0],"id":111,"left_children":[-1],"loss_changes":[0E0],"parents":[2147483647],"right_children":[-1],"split_conditions":[-6.5861936E-3],"split_indices":[0],"split_type":[0],"sum_hessian":[1.9557117E0],"tree_param":{"num_deleted":"0","num_feature":"11","num_nodes":"1","size_leaf_vector":"1"}},{"base_weights":[-6.693696E-2],"categories":[],"categories_nodes":[],"categories_segments":[],"categories_sizes":[],"default_left":[0],"id":112,"left_children":[-1],"loss_changes":[0E0],"parents":[2147483647],"right_children":[-1],"split_conditions":[-6.693696E-3],"split_indices":[0],"split_type":[0],"sum_hessian":[1.9873612E0],"tree_param":{"num_deleted":"0","num_feature":"11","num_nodes":"1","size_leaf_vector":"1"}},{"base_weights":[-4.118016E-2,-1.3623384E-2,7.4212886E-3],"categories":[],"categories_nodes":[],"categories_segments":[],"categories_sizes":[],"default_left":[0,0,0],"id":113,"left_children":[1,-1,-1],"loss_changes":[4.3151885E-2,0E0,0E0],"parents":[2147483647,0,0],"right_children":[2,-1,-1],"split_conditions":[1.712293E-1,-1.3623384E-2,7.4212886E-3],"split_indices":[0,0,0],"split_type":[0,0,0],"sum_hessian":[2.0123978E0,1.0044154E0,1.0079824E0],"tree_param":{"num_deleted":"0","num_feature":"11","num_nodes":"3","size_leaf_vector":"1"}},{"base_weights":[-6.0199037E-2],"categories":[],"categories_nodes":[],"categories_segments":[],"categories_sizes":[],"default_left":[0],"id":114,"left_children":[-1],"loss_changes":[0E0],"parents":[2147483647],"right_children":[-1],"split_conditions":[-6.019904E-3],"split_indices":[0],"split_type":[0],"sum_hessian":[1.9988352E0],"tree_param":{"num_deleted":"0","num_feature":"11","num_nodes":"1","size_leaf_vector":"1"}},{"base_weights":[-5.412996E-2,-1.6246902E-2,8.008501E-3],"categories":[],"categories_nodes":[],"categories_segments":[],"categories_sizes":[],"default_left":[0,0,0],"id":115,"left_children":[1,-1,-1],"loss_changes":[5.7002183E-2,0E0,0E0],"parents":[2147483647,0,0],"right_children":[2,-1,-1],"split_conditions":[1.6555457E-1,-1.6246902E-2,8.008501E-3],"split_indices":[0,0,0],"split_type":[0,0,0],"sum_hessian":[2.0253553E0,1.0042255E0,1.0211298E0],"tree_param":{"num_deleted":"0","num_feature":"11","num_nodes":"3","size_leaf_vector":"1"}},{"base_weights":[-1.6288875E-1],"categories":[],"categories_nodes":[],"categories_segments":[],"categories_sizes":[],"default_left":[0],"id":116,"left_children":[-1],"loss_changes":[0E0],"parents":[2147483647],"right_children":[-1],"split_conditions":[-1.6288875E-2],"split_indices":[0],"split_type":[0],"sum_hessian":[1.7398925E0],"tree_param":{"num_deleted":"0","num_feature":"11","num_nodes":"1","size_leaf_vector":"1"}},{"base_weights":[-2.4278224E-2],"categories":[],"categories_nodes":[],"categories_segments":[],"categories_sizes":[],"default_left":[0],"id":117,"left_children":[-1],"loss_changes":[0E0],"parents":[2147483647],"right_children":[-1],"split_conditions":[-2.4278224E-3],"split_indices":[0],"split_type":[0],"sum_hessian":[1.8857598E0],"tree_param":{"num_deleted":"0","num_feature":"11","num_nodes":"1","size_leaf_vector":"1"}},{"base_weights":[-2.6592098E-2],"categories":[],"categories_nodes":[],"categories_segments":[],"categories_sizes":[],"default_left":[0],"id":118,"left_children":[-1],"loss_changes":[0E0],"parents":[2147483647],"right_children":[-1],"split_conditions":[-2.6592098E-3],"split_indices":[0],"split_type":[0],"sum_hessian":[1.967356E0],"tree_param":{"num_deleted":"0","num_feature":"11","num_nodes":"1","size_leaf_vector":"1"}},{"base_weights":[-2.5670828E-2,-6.5236464E-3,2.6709023E-3],"categories":[],"categories_nodes":[],"categories_segments":[],"categories_sizes":[],"default_left":[0,0,0],"id":119,"left_children":[1,-1,-1],"loss_changes":[8.07029E-3,0E0,0E0],"parents":[2147483647,0,0],"right_children":[2,-1,-1],"split_conditions":[2.9523954E-1,-6.5236464E-3,2.6709023E-3],"split_indices":[7,0,0],"split_type":[0,0,0],"sum_hessian":[2.0533483E0,1.0299306E0,1.0234177E0],"tree_param":{"num_deleted":"0","num_feature":"11","num_nodes":"3","size_leaf_vector":"1"}},{"base_weights":[-1.6907622E-1],"categories":[],"categories_nodes":[],"categories_segments":[],"categories_sizes":[],"default_left":[0],"id":120,"left_children":[-1],"loss_changes":[0E0],"parents":[2147483647],"right_children":[-1],"split_conditions":[-1.6907623E-2],"split_indices":[0],"split_type":[0],"sum_hessian":[1.7103505E0],"tree_param":{"num_deleted":"0","num_feature":"11","num_nodes":"1","size_leaf_vector":"1"}},{"base_weights":[1.4234453E-1],"categories":[],"categories_nodes":[],"categories_segments":[],"categories_sizes":[],"default_left":[0],"id":121,"left_children":[-1],"loss_changes":[0E0],"parents":[2147483647],"right_children":[-1],"split_conditions":[1.4234453E-2],"split_indices":[0],"split_type":[0],"sum_hessian":[1.4496317E0],"tree_param":{"num_deleted":"0","num_feature":"11","num_nodes":"1","size_leaf_vector":"1"}},{"base_weights":[-2.058798E-2,-4.9903947E-3,1.8879492E-3],"categories":[],"categories_nodes":[],"categories_segments":[],"categories_sizes":[],"default_left":[0,0,0],"id":122,"left_children":[1,-1,-1],"loss_changes":[4.421999E-3,0E0,0E0],"parents":[2147483647,0,0],"right_children":[2,-1,-1],"split_conditions":[2.991522E-1,-4.9903947E-3,1.8879492E-3],"split_indices":[7,0,0],"split_type":[0,0,0],"sum_hessian":[2.0075686E0,1.0001999E0,1.0073687E0],"tree_param":{"num_deleted":"0","num_feature":"11","num_nodes":"3","size_leaf_vector":"1"}},{"base_weights":[2.352562E-1],"categories":[],"categories_nodes":[],"categories_segments":[],"categories_sizes":[],"default_left":[0],"id":123,"left_children":[-1],"loss_changes":[0E0],"parents":[2147483647],"right_children":[-1],"split_conditions":[2.352562E-2],"split_indices":[0],"split_type":[0],"sum_hessian":[1.7264507E0],"tree_param":{"num_deleted":"0","num_feature":"11","num_nodes":"1","size_leaf_vector":"1"}},{"base_weights":[-1.8229635E-1],"categories":[],"categories_nodes":[],"categories_segments":[],"categories_sizes":[],"default_left":[0],"id":124,"left_children":[-1],"loss_changes":[0E0],"parents":[2147483647],"right_children":[-1],"split_conditions":[-1.8229635E-2],"split_indices":[0],"split_type":[0],"sum_hessian":[1.7727565E0],"tree_param":{"num_deleted":"0","num_feature":"11","num_nodes":"1","size_leaf_vector":"1"}},{"base_weights":[-2.7519256E-2],"categories":[],"categories_nodes":[],"categories_segments":[],"categories_sizes":[],"default_left":[0],"id":125,"left_children":[-1],"loss_changes":[0E0],"parents":[2147483647],"right_children":[-1],"split_conditions":[-2.7519257E-3],"split_indices":[0],"split_type":[0],"sum_hessian":[1.8175337E0],"tree_param":{"num_deleted":"0","num_feature":"11","num_nodes":"1","size_leaf_vector":"1"}},{"base_weights":[-1.4643696E-1],"categories":[],"categories_nodes":[],"categories_segments":[],"categories_sizes":[],"default_left":[0],"id":126,"left_children":[-1],"loss_changes":[0E0],"parents":[2147483647],"right_children":[-1],"split_conditions":[-1.4643696E-2],"split_indices":[0],"split_type":[0],"sum_hessian":[1.7580551E0],"tree_param":{"num_deleted":"0","num_feature":"11","num_nodes":"1","size_leaf_vector":"1"}},{"base_weights":[2.1124317E-1],"categories":[],"categories_nodes":[],"categories_segments":[],"categories_sizes":[],"default_left":[0],"id":127,"left_children":[-1],"loss_changes":[0E0],"parents":[2147483647],"right_children":[-1],"split_conditions":[2.1124316E-2],"split_indices":[0],"split_type":[0],"sum_hessian":[1.7707876E0],"tree_param":{"num_deleted":"0","num_feature":"11","num_nodes":"1","size_leaf_vector":"1"}},{"base_weights":[1.5071188E-2],"categories":[],"categories_nodes":[],"categories_segments":[],"categories_sizes":[],"default_left":[0],"id":128,"left_children":[-1],"loss_changes":[0E0],"parents":[2147483647],"right_children":[-1],"split_conditions":[1.5071188E-3],"split_indices":[0],"split_type":[0],"sum_hessian":[1.8402231E0],"tree_param":{"num_deleted":"0","num_feature":"11","num_nodes":"1","size_leaf_vector":"1"}},{"base_weights":[-3.7606098E-2],"categories":[],"categories_nodes":[],"categories_segments":[],"categories_sizes":[],"default_left":[0],"id":129,"left_children":[-1],"loss_changes":[0E0],"parents":[2147483647],"right_children":[-1],"split_conditions":[-3.7606098E-3],"split_indices":[0],"split_type":[0],"sum_hessian":[1.9457172E0],"tree_param":{"num_deleted":"0","num_feature":"11","num_nodes":"1","size_leaf_vector":"1"}},{"base_weights":[-1.6368414E-1],"categories":[],"categories_nodes":[],"categories_segments":[],"categories_sizes":[],"default_left":[0],"id":130,"left_children":[-1],"loss_changes":[0E0],"parents":[2147483647],"right_children":[-1],"split_conditions":[-1.6368415E-2],"split_indices":[0],"split_type":[0],"sum_hessian":[1.7200698E0],"tree_param":{"num_deleted":"0","num_feature":"11","num_nodes":"1","size_leaf_vector":"1"}},{"base_weights":[-1.4223812E-2],"categories":[],"categories_nodes":[],"categories_segments":[],"categories_sizes":[],"default_left":[0],"id":131,"left_children":[-1],"loss_changes":[0E0],"parents":[2147483647],"right_children":[-1],"split_conditions":[-1.4223813E-3],"split_indices":[0],"split_type":[0],"sum_hessian":[1.9804283E0],"tree_param":{"num_deleted":"0","num_feature":"11","num_nodes":"1","size_leaf_vector":"1"}},{"base_weights":[5.447445E-3],"categories":[],"categories_nodes":[],"categories_segments":[],"categories_sizes":[],"default_left":[0],"id":132,"left_children":[-1],"loss_changes":[0E0],"parents":[2147483647],"right_children":[-1],"split_conditions":[5.447445E-4],"split_indices":[0],"split_type":[0],"sum_hessian":[1.9008477E0],"tree_param":{"num_deleted":"0","num_feature":"11","num_nodes":"1","size_leaf_vector":"1"}},{"base_weights":[2.351303E-1],"categories":[],"categories_nodes":[],"categories_segments":[],"categories_sizes":[],"default_left":[0],"id":133,"left_children":[-1],"loss_changes":[0E0],"parents":[2147483647],"right_children":[-1],"split_conditions":[2.351303E-2],"split_indices":[0],"split_type":[0],"sum_hessian":[1.7036734E0],"tree_param":{"num_deleted":"0","num_feature":"11","num_nodes":"1","size_leaf_vector":"1"}},{"base_weights":[-1.1744399E-1],"categories":[],"categories_nodes":[],"categories_segments":[],"categories_sizes":[],"default_left":[0],"id":134,"left_children":[-1],"loss_changes":[0E0],"parents":[2147483647],"right_children":[-1],"split_conditions":[-1.17444E-2],"split_indices":[0],"split_type":[0],"sum_hessian":[1.7800918E0],"tree_param":{"num_deleted":"0","num_feature":"11","num_nodes":"1","size_leaf_vector":"1"}},{"base_weights":[-4.2640477E-2],"categories":[],"categories_nodes":[],"categories_segments":[],"categories_sizes":[],"default_left":[0],"id":135,"left_children":[-1],"loss_changes":[0E0],"parents":[2147483647],"right_children":[-1],"split_conditions":[-4.264048E-3],"split_indices":[0],"split_type":[0],"sum_hessian":[1.931198E0],"tree_param":{"num_deleted":"0","num_feature":"11","num_nodes":"1","size_leaf_vector":"1"}},{"base_weights":[-2.101469E-2],"categories":[],"categories_nodes":[],"categories_segments":[],"categories_sizes":[],"default_left":[0],"id":136,"left_children":[-1],"loss_changes":[0E0],"parents":[2147483647],"right_children":[-1],"split_conditions":[-2.101469E-3],"split_indices":[0],"split_type":[0],"sum_hessian":[1.9491814E0],"tree_param":{"num_deleted":"0","num_feature":"11","num_nodes":"1","size_leaf_vector":"1"}},{"base_weights":[-7.7287015E-3],"categories":[],"categories_nodes":[],"categories_segments":[],"categories_sizes":[],"default_left":[0],"id":137,"left_children":[-1],"loss_changes":[0E0],"parents":[2147483647],"right_children":[-1],"split_conditions":[-7.7287015E-4],"split_indices":[0],"split_type":[0],"sum_hessian":[1.8516393E0],"tree_param":{"num_deleted":"0","num_feature":"11","num_nodes":"1","size_leaf_vector":"1"}},{"base_weights":[1.990747E-1],"categories":[],"categories_nodes":[],"categories_segments":[],"categories_sizes":[],"default_left":[0],"id":138,"left_children":[-1],"loss_changes":[0E0],"parents":[2147483647],"right_children":[-1],"split_conditions":[1.990747E-2],"split_indices":[0],"split_type":[0],"sum_hessian":[1.7498105E0],"tree_param":{"num_deleted":"0","num_feature":"11","num_nodes":"1","size_leaf_vector":"1"}},{"base_weights":[-4.87195E-2],"categories":[],"categories_nodes":[],"categories_segments":[],"categories_sizes":[],"default_left":[0],"id":139,"left_children":[-1],"loss_changes":[0E0],"parents":[2147483647],"right_children":[-1],"split_conditions":[-4.87195E-3],"split_indices":[0],"split_type":[0],"sum_hessian":[1.9297371E0],"tree_param":{"num_deleted":"0","num_feature":"11","num_nodes":"1","size_leaf_vector":"1"}},{"base_weights":[-2.1668073E-2],"categories":[],"categories_nodes":[],"categories_segments":[],"categories_sizes":[],"default_left":[0],"id":140,"left_children":[-1],"loss_changes":[0E0],"parents":[2147483647],"right_children":[-1],"split_conditions":[-2.1668074E-3],"split_indices":[0],"split_type":[0],"sum_hessian":[1.9821546E0],"tree_param":{"num_deleted":"0","num_feature":"11","num_nodes":"1","size_leaf_vector":"1"}},{"base_weights":[-6.5931315E-5],"categories":[],"categories_nodes":[],"categories_segments":[],"categories_sizes":[],"default_left":[0],"id":141,"left_children":[-1],"loss_changes":[0E0],"parents":[2147483647],"right_children":[-1],"split_conditions":[-6.5931317E-6],"split_indices":[0],"split_type":[0],"sum_hessian":[1.8684478E0],"tree_param":{"num_deleted":"0","num_feature":"11","num_nodes":"1","size_leaf_vector":"1"}},{"base_weights":[-1.1870275E-2],"categories":[],"categories_nodes":[],"categories_segments":[],"categories_sizes":[],"default_left":[0],"id":142,"left_children":[-1],"loss_changes":[0E0],"parents":[2147483647],"right_children":[-1],"split_conditions":[-1.1870275E-3],"split_indices":[0],"split_type":[0],"sum_hessian":[1.8010612E0],"tree_param":{"num_deleted":"0","num_feature":"11","num_nodes":"1","size_leaf_vector":"1"}},{"base_weights":[2.6085919E-2],"categories":[],"categories_nodes":[],"categories_segments":[],"categories_sizes":[],"default_left":[0],"id":143,"left_children":[-1],"loss_changes":[0E0],"parents":[2147483647],"right_children":[-1],"split_conditions":[2.608592E-3],"split_indices":[0],"split_type":[0],"sum_hessian":[1.8381087E0],"tree_param":{"num_deleted":"0","num_feature":"11","num_nodes":"1","size_leaf_vector":"1"}},{"base_weights":[1.0029168E-3],"categories":[],"categories_nodes":[],"categories_segments":[],"categories_sizes":[],"default_left":[0],"id":144,"left_children":[-1],"loss_changes":[0E0],"parents":[2147483647],"right_children":[-1],"split_conditions":[1.0029168E-4],"split_indices":[0],"split_type":[0],"sum_hessian":[1.9372137E0],"tree_param":{"num_deleted":"0","num_feature":"11","num_nodes":"1","size_leaf_vector":"1"}},{"base_weights":[-2.7747996E-2],"categories":[],"categories_nodes":[],"categories_segments":[],"categories_sizes":[],"default_left":[0],"id":145,"left_children":[-1],"loss_changes":[0E0],"parents":[2147483647],"right_children":[-1],"split_conditions":[-2.7747997E-3],"split_indices":[0],"split_type":[0],"sum_hessian":[1.9755408E0],"tree_param":{"num_deleted":"0","num_feature":"11","num_nodes":"1","size_leaf_vector":"1"}},{"base_weights":[-1.9176397E-2],"categories":[],"categories_nodes":[],"categories_segments":[],"categories_sizes":[],"default_left":[0],"id":146,"left_children":[-1],"loss_changes":[0E0],"parents":[2147483647],"right_children":[-1],"split_conditions":[-1.9176397E-3],"split_indices":[0],"split_type":[0],"sum_hessian":[1.9448646E0],"tree_param":{"num_deleted":"0","num_feature":"11","num_nodes":"1","size_leaf_vector":"1"}},{"base_weights":[-1.5590798E-2],"categories":[],"categories_nodes":[],"categories_segments":[],"categories_sizes":[],"default_left":[0],"id":147,"left_children":[-1],"loss_changes":[0E0],"parents":[2147483647],"right_children":[-1],"split_conditions":[-1.5590799E-3],"split_indices":[0],"split_type":[0],"sum_hessian":[1.9268974E0],"tree_param":{"num_deleted":"0","num_feature":"11","num_nodes":"1","size_leaf_vector":"1"}},{"base_weights":[-4.062831E-2],"categories":[],"categories_nodes":[],"categories_segments":[],"categories_sizes":[],"default_left":[0],"id":148,"left_children":[-1],"loss_changes":[0E0],"parents":[2147483647],"right_children":[-1],"split_conditions":[-4.062831E-3],"split_indices":[0],"split_type":[0],"sum_hessian":[1.9623828E0],"tree_param":{"num_deleted":"0","num_feature":"11","num_nodes":"1","size_leaf_vector":"1"}},{"base_weights":[-1.10311635E-1],"categories":[],"categories_nodes":[],"categories_segments":[],"categories_sizes":[],"default_left":[0],"id":149,"left_children":[-1],"loss_changes":[0E0],"parents":[2147483647],"right_children":[-1],"split_conditions":[-1.1031164E-2],"split_indices":[0],"split_type":[0],"sum_hessian":[1.6520457E0],"tree_param":{"num_deleted":"0","num_feature":"11","num_nodes":"1","size_leaf_vector":"1"}},{"base_weights":[2.0772955E-1],"categories":[],"categories_nodes":[],"categories_segments":[],"categories_sizes":[],"default_left":[0],"id":150,"left_children":[-1],"loss_changes":[0E0],"parents":[2147483647],"right_children":[-1],"split_conditions":[2.0772954E-2],"split_indices":[0],"split_type":[0],"sum_hessian":[1.770615E0],"tree_param":{"num_deleted":"0","num_feature":"11","num_nodes":"1","size_leaf_vector":"1"}},{"base_weights":[1.887232E-1],"categories":[],"categories_nodes":[],"categories_segments":[],"categories_sizes":[],"default_left":[0],"id":151,"left_children":[-1],"loss_changes":[0E0],"parents":[2147483647],"right_children":[-1],"split_conditions":[1.887232E-2],"split_indices":[0],"split_type":[0],"sum_hessian":[1.7064272E0],"tree_param":{"num_deleted":"0","num_feature":"11","num_nodes":"1","size_leaf_vector":"1"}},{"base_weights":[1.4761924E-2],"categories":[],"categories_nodes":[],"categories_segments":[],"categories_sizes":[],"default_left":[0],"id":152,"left_children":[-1],"loss_changes":[0E0],"parents":[2147483647],"right_children":[-1],"split_conditions":[1.4761924E-3],"split_indices":[0],"split_type":[0],"sum_hessian":[1.8261179E0],"tree_param":{"num_deleted":"0","num_feature":"11","num_nodes":"1","size_leaf_vector":"1"}},{"base_weights":[-1.7516385E-1],"categories":[],"categories_nodes":[],"categories_segments":[],"categories_sizes":[],"default_left":[0],"id":153,"left_children":[-1],"loss_changes":[0E0],"parents":[2147483647],"right_children":[-1],"split_conditions":[-1.7516386E-2],"split_indices":[0],"split_type":[0],"sum_hessian":[1.7141556E0],"tree_param":{"num_deleted":"0","num_feature":"11","num_nodes":"1","size_leaf_vector":"1"}},{"base_weights":[-7.8275666E-2],"categories":[],"categories_nodes":[],"categories_segments":[],"categories_sizes":[],"default_left":[0],"id":154,"left_children":[-1],"loss_changes":[0E0],"parents":[2147483647],"right_children":[-1],"split_conditions":[-7.827567E-3],"split_indices":[0],"split_type":[0],"sum_hessian":[1.6508225E0],"tree_param":{"num_deleted":"0","num_feature":"11","num_nodes":"1","size_leaf_vector":"1"}},{"base_weights":[-1.9232161E-2],"categories":[],"categories_nodes":[],"categories_segments":[],"categories_sizes":[],"default_left":[0],"id":155,"left_children":[-1],"loss_changes":[0E0],"parents":[2147483647],"right_children":[-1],"split_conditions":[-1.9232162E-3],"split_indices":[0],"split_type":[0],"sum_hessian":[1.9310514E0],"tree_param":{"num_deleted":"0","num_feature":"11","num_nodes":"1","size_leaf_vector":"1"}},{"base_weights":[-5.8192164E-3],"categories":[],"categories_nodes":[],"categories_segments":[],"categories_sizes":[],"default_left":[0],"id":156,"left_children":[-1],"loss_changes":[0E0],"parents":[2147483647],"right_children":[-1],"split_conditions":[-5.8192166E-4],"split_indices":[0],"split_type":[0],"sum_hessian":[1.8429594E0],"tree_param":{"num_deleted":"0","num_feature":"11","num_nodes":"1","size_leaf_vector":"1"}},{"base_weights":[9.344225E-3],"categories":[],"categories_nodes":[],"categories_segments":[],"categories_sizes":[],"default_left":[0],"id":157,"left_children":[-1],"loss_changes":[0E0],"parents":[2147483647],"right_children":[-1],"split_conditions":[9.344225E-4],"split_indices":[0],"split_type":[0],"sum_hessian":[1.8150233E0],"tree_param":{"num_deleted":"0","num_feature":"11","num_nodes":"1","size_leaf_vector":"1"}},{"base_weights":[-2.5759501E-2],"categories":[],"categories_nodes":[],"categories_segments":[],"categories_sizes":[],"default_left":[0],"id":158,"left_children":[-1],"loss_changes":[0E0],"parents":[2147483647],"right_children":[-1],"split_conditions":[-2.5759502E-3],"split_indices":[0],"split_type":[0],"sum_hessian":[1.926139E0],"tree_param":{"num_deleted":"0","num_feature":"11","num_nodes":"1","size_leaf_vector":"1"}},{"base_weights":[2.0065248E-1],"categories":[],"categories_nodes":[],"categories_segments":[],"categories_sizes":[],"default_left":[0],"id":159,"left_children":[-1],"loss_changes":[0E0],"parents":[2147483647],"right_children":[-1],"split_conditions":[2.0065248E-2],"split_indices":[0],"split_type":[0],"sum_hessian":[1.7843915E0],"tree_param":{"num_deleted":"0","num_feature":"11","num_nodes":"1","size_leaf_vector":"1"}},{"base_weights":[1.7726246E-1],"categories":[],"categories_nodes":[],"categories_segments":[],"categories_sizes":[],"default_left":[0],"id":160,"left_children":[-1],"loss_changes":[0E0],"parents":[2147483647],"right_children":[-1],"split_conditions":[1.7726246E-2],"split_indices":[0],"split_type":[0],"sum_hessian":[1.7608654E0],"tree_param":{"num_deleted":"0","num_feature":"11","num_nodes":"1","size_leaf_vector":"1"}},{"base_weights":[-3.9803755E-2],"categories":[],"categories_nodes":[],"categories_segments":[],"categories_sizes":[],"default_left":[0],"id":161,"left_children":[-1],"loss_changes":[0E0],"parents":[2147483647],"right_children":[-1],"split_conditions":[-3.9803754E-3],"split_indices":[0],"split_type":[0],"sum_hessian":[1.9354931E0],"tree_param":{"num_deleted":"0","num_feature":"11","num_nodes":"1","size_leaf_vector":"1"}},{"base_weights":[-5.0248187E-2],"categories":[],"categories_nodes":[],"categories_segments":[],"categories_sizes":[],"default_left":[0],"id":162,"left_children":[-1],"loss_changes":[0E0],"parents":[2147483647],"right_children":[-1],"split_conditions":[-5.0248187E-3],"split_indices":[0],"split_type":[0],"sum_hessian":[1.9151098E0],"tree_param":{"num_deleted":"0","num_feature":"11","num_nodes":"1","size_leaf_vector":"1"}},{"base_weights":[-3.643674E-2],"categories":[],"categories_nodes":[],"categories_segments":[],"categories_sizes":[],"default_left":[0],"id":163,"left_children":[-1],"loss_changes":[0E0],"parents":[2147483647],"right_children":[-1],"split_conditions":[-3.643674E-3],"split_indices":[0],"split_type":[0],"sum_hessian":[1.9244349E0],"tree_param":{"num_deleted":"0","num_feature":"11","num_nodes":"1","size_leaf_vector":"1"}},{"base_weights":[-1.6207878E-1],"categories":[],"categories_nodes":[],"categories_segments":[],"categories_sizes":[],"default_left":[0],"id":164,"left_children":[-1],"loss_changes":[0E0],"parents":[2147483647],"right_children":[-1],"split_conditions":[-1.620788E-2],"split_indices":[0],"split_type":[0],"sum_hessian":[1.7212046E0],"tree_param":{"num_deleted":"0","num_feature":"11","num_nodes":"1","size_leaf_vector":"1"}},{"base_weights":[-1.541911E-1],"categories":[],"categories_nodes":[],"categories_segments":[],"categories_sizes":[],"default_left":[0],"id":165,"left_children":[-1],"loss_changes":[0E0],"parents":[2147483647],"right_children":[-1],"split_conditions":[-1.5419111E-2],"split_indices":[0],"split_type":[0],"sum_hessian":[1.7724718E0],"tree_param":{"num_deleted":"0","num_feature":"11","num_nodes":"1","size_leaf_vector":"1"}},{"base_weights":[2.3491146E-1],"categories":[],"categories_nodes":[],"categories_segments":[],"categories_sizes":[],"default_left":[0],"id":166,"left_children":[-1],"loss_changes":[0E0],"parents":[2147483647],"right_children":[-1],"split_conditions":[2.3491146E-2],"split_indices":[0],"split_type":[0],"sum_hessian":[1.712786E0],"tree_param":{"num_deleted":"0","num_feature":"11","num_nodes":"1","size_leaf_vector":"1"}},{"base_weights":[-5.318077E-2],"categories":[],"categories_nodes":[],"categories_segments":[],"categories_sizes":[],"default_left":[0],"id":167,"left_children":[-1],"loss_changes":[0E0],"parents":[2147483647],"right_children":[-1],"split_conditions":[-5.318077E-3],"split_indices":[0],"split_type":[0],"sum_hessian":[1.990344E0],"tree_param":{"num_deleted":"0","num_feature":"11","num_nodes":"1","size_leaf_vector":"1"}},{"base_weights":[2.1046564E-1],"categories":[],"categories_nodes":[],"categories_segments":[],"categories_sizes":[],"default_left":[0],"id":168,"left_children":[-1],"loss_changes":[0E0],"parents":[2147483647],"right_children":[-1],"split_conditions":[2.1046564E-2],"split_indices":[0],"split_type":[0],"sum_hessian":[1.712088E0],"tree_param":{"num_deleted":"0","num_feature":"11","num_nodes":"1","size_leaf_vector":"1"}},{"base_weights":[2.1067211E-1],"categories":[],"categories_nodes":[],"categories_segments":[],"categories_sizes":[],"default_left":[0],"id":169,"left_children":[-1],"loss_changes":[0E0],"parents":[2147483647],"right_children":[-1],"split_conditions":[2.1067211E-2],"split_indices":[0],"split_type":[0],"sum_hessian":[1.6254755E0],"tree_param":{"num_deleted":"0","num_feature":"11","num_nodes":"1","size_leaf_vector":"1"}},{"base_weights":[-1.869118E-1],"categories":[],"categories_nodes":[],"categories_segments":[],"categories_sizes":[],"default_left":[0],"id":170,"left_children":[-1],"loss_changes":[0E0],"parents":[2147483647],"right_children":[-1],"split_conditions":[-1.869118E-2],"split_indices":[0],"split_type":[0],"sum_hessian":[1.7334367E0],"tree_param":{"num_deleted":"0","num_feature":"11","num_nodes":"1","size_leaf_vector":"1"}},{"base_weights":[-3.237407E-2],"categories":[],"categories_nodes":[],"categories_segments":[],"categories_sizes":[],"default_left":[0],"id":171,"left_children":[-1],"loss_changes":[0E0],"parents":[2147483647],"right_children":[-1],"split_conditions":[-3.237407E-3],"split_indices":[0],"split_type":[0],"sum_hessian":[1.9538145E0],"tree_param":{"num_deleted":"0","num_feature":"11","num_nodes":"1","size_leaf_vector":"1"}},{"base_weights":[-6.415069E-2],"categories":[],"categories_nodes":[],"categories_segments":[],"categories_sizes":[],"default_left":[0],"id":172,"left_children":[-1],"loss_changes":[0E0],"parents":[2147483647],"right_children":[-1],"split_conditions":[-6.415069E-3],"split_indices":[0],"split_type":[0],"sum_hessian":[1.9382933E0],"tree_param":{"num_deleted":"0","num_feature":"11","num_nodes":"1","size_leaf_vector":"1"}},{"base_weights":[-2.0034125E-2],"categories":[],"categories_nodes":[],"categories_segments":[],"categories_sizes":[],"default_left":[0],"id":173,"left_children":[-1],"loss_changes":[0E0],"parents":[2147483647],"right_children":[-1],"split_conditions":[-2.0034125E-3],"split_indices":[0],"split_type":[0],"sum_hessian":[1.9254746E0],"tree_param":{"num_deleted":"0","num_feature":"11","num_nodes":"1","size_leaf_vector":"1"}},{"base_weights":[-4.8807338E-2,-1.5689041E-2,8.220482E-3],"categories":[],"categories_nodes":[],"categories_segments":[],"categories_sizes":[],"default_left":[0,0,0],"id":174,"left_children":[1,-1,-1],"loss_changes":[5.5859882E-2,0E0,0E0],"parents":[2147483647,0,0],"right_children":[2,-1,-1],"split_conditions":[1.6375026E-1,-1.5689041E-2,8.220482E-3],"split_indices":[0,0,0],"split_type":[0,0,0],"sum_hessian":[2.0340502E0,1.0063231E0,1.027727E0],"tree_param":{"num_deleted":"0","num_feature":"11","num_nodes":"3","size_leaf_vector":"1"}},{"base_weights":[-6.036733E-2],"categories":[],"categories_nodes":[],"categories_segments":[],"categories_sizes":[],"default_left":[0],"id":175,"left_children":[-1],"loss_changes":[0E0],"parents":[2147483647],"right_children":[-1],"split_conditions":[-6.0367333E-3],"split_indices":[0],"split_type":[0],"sum_hessian":[1.9592882E0],"tree_param":{"num_deleted":"0","num_feature":"11","num_nodes":"1","size_leaf_vector":"1"}},{"base_weights":[-1.4480606E-2],"categories":[],"categories_nodes":[],"categories_segments":[],"categories_sizes":[],"default_left":[0],"id":176,"left_children":[-1],"loss_changes":[0E0],"parents":[2147483647],"right_children":[-1],"split_conditions":[-1.4480606E-3],"split_indices":[0],"split_type":[0],"sum_hessian":[1.9136215E0],"tree_param":{"num_deleted":"0","num_feature":"11","num_nodes":"1","size_leaf_vector":"1"}},{"base_weights":[-1.1646511E-1],"categories":[],"categories_nodes":[],"categories_segments":[],"categories_sizes":[],"default_left":[0],"id":177,"left_children":[-1],"loss_changes":[0E0],"parents":[2147483647],"right_children":[-1],"split_conditions":[-1.1646511E-2],"split_indices":[0],"split_type":[0],"sum_hessian":[1.6259295E0],"tree_param":{"num_deleted":"0","num_feature":"11","num_nodes":"1","size_leaf_vector":"1"}},{"base_weights":[-2.490495E-2],"categories":[],"categories_nodes":[],"categories_segments":[],"categories_sizes":[],"default_left":[0],"id":178,"left_children":[-1],"loss_changes":[0E0],"parents":[2147483647],"right_children":[-1],"split_conditions":[-2.490495E-3],"split_indices":[0],"split_type":[0],"sum_hessian":[1.9320134E0],"tree_param":{"num_deleted":"0","num_feature":"11","num_nodes":"1","size_leaf_vector":"1"}},{"base_weights":[4.9354453E-3],"categories":[],"categories_nodes":[],"categories_segments":[],"categories_sizes":[],"default_left":[0],"id":179,"left_children":[-1],"loss_changes":[0E0],"parents":[2147483647],"right_children":[-1],"split_conditions":[4.9354456E-4],"split_indices":[0],"split_type":[0],"sum_hessian":[1.8777766E0],"tree_param":{"num_deleted":"0","num_feature":"11","num_nodes":"1","size_leaf_vector":"1"}},{"base_weights":[-2.2004325E-2],"categories":[],"categories_nodes":[],"categories_segments":[],"categories_sizes":[],"default_left":[0],"id":180,"left_children":[-1],"loss_changes":[0E0],"parents":[2147483647],"right_children":[-1],"split_conditions":[-2.2004326E-3],"split_indices":[0],"split_type":[0],"sum_hessian":[1.9602321E0],"tree_param":{"num_deleted":"0","num_feature":"11","num_nodes":"1","size_leaf_vector":"1"}},{"base_weights":[8.694168E-3],"categories":[],"categories_nodes":[],"categories_segments":[],"categories_sizes":[],"default_left":[0],"id":181,"left_children":[-1],"loss_changes":[0E0],"parents":[2147483647],"right_children":[-1],"split_conditions":[8.694168E-4],"split_indices":[0],"split_type":[0],"sum_hessian":[1.8553472E0],"tree_param":{"num_deleted":"0","num_feature":"11","num_nodes":"1","size_leaf_vector":"1"}},{"base_weights":[-1.8064952E-2],"categories":[],"categories_nodes":[],"categories_segments":[],"categories_sizes":[],"default_left":[0],"id":182,"left_children":[-1],"loss_changes":[0E0],"parents":[2147483647],"right_children":[-1],"split_conditions":[-1.8064951E-3],"split_indices":[0],"split_type":[0],"sum_hessian":[1.9909163E0],"tree_param":{"num_deleted":"0","num_feature":"11","num_nodes":"1","size_leaf_vector":"1"}},{"base_weights":[-2.3999212E-2],"categories":[],"categories_nodes":[],"categories_segments":[],"categories_sizes":[],"default_left":[0],"id":183,"left_children":[-1],"loss_changes":[0E0],"parents":[2147483647],"right_children":[-1],"split_conditions":[-2.3999212E-3],"split_indices":[0],"split_type":[0],"sum_hessian":[1.9551586E0],"tree_param":{"num_deleted":"0","num_feature":"11","num_nodes":"1","size_leaf_vector":"1"}},{"base_weights":[-2.5478879E-2],"categories":[],"categories_nodes":[],"categories_segments":[],"categories_sizes":[],"default_left":[0],"id":184,"left_children":[-1],"loss_changes":[0E0],"parents":[2147483647],"right_children":[-1],"split_conditions":[-2.5478879E-3],"split_indices":[0],"split_type":[0],"sum_hessian":[1.9631468E0],"tree_param":{"num_deleted":"0","num_feature":"11","num_nodes":"1","size_leaf_vector":"1"}},{"base_weights":[-1.081128E-1],"categories":[],"categories_nodes":[],"categories_segments":[],"categories_sizes":[],"default_left":[0],"id":185,"left_children":[-1],"loss_changes":[0E0],"parents":[2147483647],"right_children":[-1],"split_conditions":[-1.08112795E-2],"split_indices":[0],"split_type":[0],"sum_hessian":[1.764539E0],"tree_param":{"num_deleted":"0","num_feature":"11","num_nodes":"1","size_leaf_vector":"1"}},{"base_weights":[-2.3266268E-3],"categories":[],"categories_nodes":[],"categories_segments":[],"categories_sizes":[],"default_left":[0],"id":186,"left_children":[-1],"loss_changes":[0E0],"parents":[2147483647],"right_children":[-1],"split_conditions":[-2.3266269E-4],"split_indices":[0],"split_type":[0],"sum_hessian":[1.9799964E0],"tree_param":{"num_deleted":"0","num_feature":"11","num_nodes":"1","size_leaf_vector":"1"}},{"base_weights":[-1.5895031E-2],"categories":[],"categories_nodes":[],"categories_segments":[],"categories_sizes":[],"default_left":[0],"id":187,"left_children":[-1],"loss_changes":[0E0],"parents":[2147483647],"right_children":[-1],"split_conditions":[-1.5895031E-3],"split_indices":[0],"split_type":[0],"sum_hessian":[1.9866724E0],"tree_param":{"num_deleted":"0","num_feature":"11","num_nodes":"1","size_leaf_vector":"1"}},{"base_weights":[-1.2807573E-1],"categories":[],"categories_nodes":[],"categories_segments":[],"categories_sizes":[],"default_left":[0],"id":188,"left_children":[-1],"loss_changes":[0E0],"parents":[2147483647],"right_children":[-1],"split_conditions":[-1.2807573E-2],"split_indices":[0],"split_type":[0],"sum_hessian":[1.7540005E0],"tree_param":{"num_deleted":"0","num_feature":"11","num_nodes":"1","size_leaf_vector":"1"}},{"base_weights":[2.1256876E-1],"categories":[],"categories_nodes":[],"categories_segments":[],"categories_sizes":[],"default_left":[0],"id":189,"left_children":[-1],"loss_changes":[0E0],"parents":[2147483647],"right_children":[-1],"split_conditions":[2.1256877E-2],"split_indices":[0],"split_type":[0],"sum_hessian":[1.7423759E0],"tree_param":{"num_deleted":"0","num_feature":"11","num_nodes":"1","size_leaf_vector":"1"}},{"base_weights":[-2.2052707E-2],"categories":[],"categories_nodes":[],"categories_segments":[],"categories_sizes":[],"default_left":[0],"id":190,"left_children":[-1],"loss_changes":[0E0],"parents":[2147483647],"right_children":[-1],"split_conditions":[-2.2052708E-3],"split_indices":[0],"split_type":[0],"sum_hessian":[1.9680898E0],"tree_param":{"num_deleted":"0","num_feature":"11","num_nodes":"1","size_leaf_vector":"1"}},{"base_weights":[2.4129796E-1],"categories":[],"categories_nodes":[],"categories_segments":[],"categories_sizes":[],"default_left":[0],"id":191,"left_children":[-1],"loss_changes":[0E0],"parents":[2147483647],"right_children":[-1],"split_conditions":[2.4129797E-2],"split_indices":[0],"split_type":[0],"sum_hessian":[1.6902844E0],"tree_param":{"num_deleted":"0","num_feature":"11","num_nodes":"1","size_leaf_vector":"1"}},{"base_weights":[-2.551256E-3],"categories":[],"categories_nodes":[],"categories_segments":[],"categories_sizes":[],"default_left":[0],"id":192,